tree
version=v4
num_class=1
num_tree_per_iteration=1
label_index=0
max_feature_idx=22
objective=quantile
feature_names=is_appartment area bedrooms new_building postcode lat lon advertiser foto_amount subtype energy_value province age lat_center lon_center distance_to_center emp_rate province_pop province_size mun_pop mun_size income energy_label_encoded
feature_infos=[0:1] [6:22189] [0:48] [0:1] [1000:9992] [43.591235599999997:51.501060271] [1.6760691000000001:6.3997786999999997] -1:1503:1792:987:1089:826:787:1227:750:1368:809:1407:545:1369:1767:1362:1335:1673:812:620:394:639:1901:237:814:1827:821:1502:1894:824:1392:2047:2031:874:1271:526:792:818:993:1378:1562:839:1128:2088:236:286:393:581:766:1831:2027:823:310:2070:1833:760:935:822:555:1178:1727:250:1204:1280:2090:173:1025:1054:1357:462:537:1452:92:168:350:595:644:514:2006:93:235:779:800:1954:248:305:345:1184:1493:1584:487:683:807:827:909:1472:274:548:1133:1508:1563:1597:738:1611:155:309:1672:1813:1997:21:489:534:725:876:1068:1183:1352:2009:164:337:600:816:1713:1865:1928:2053:48:1131:1632:1711:2060:390:540:621:1073:1228:1413:1917:2012:2073:34:239:313:503:1154:1235:1250:85:615:737:817:834:918:1252:1395:1560:1952:1960:357:715:806:1561:1688:1779:1943:1984:232:270:271:470:813:1012:1195:1286:1571:1633:1658:1747:1931:2045:2111:294:404:497:567:1138:1251:1316:1379:1538:1656:1716:484:495:518:585:594:711:764:825:934:1052:1264:1380:1388:1556:1575:1668:1968:17:122:126:333:574:1067:1100:1101:1126:1221:1226:1295:1436:1587:1664:1674:1708:1814:265:297:369:519:642:767:871:989:1246:1417:1978:2000:2058:2094:0:146:196:255:328:359:376:512:552:630:714:919:925:947:961:964:1023:1136:1145:1372:1381:1464:1553:1693:1947:2122:38:107:115:116:209:222:261:282:338:466:551:553:613:672:894:902:905:1016:1029:1046:1113:1151:1249:1400:1446:1453:1554:1624:1677:1736:1787:1966:1970:1990:9:31:45:134:290:339:361:366:483:493:502:588:618:740:854:913:1039:1147:1370:1495:1540:1578:1724:1737:1816:1818:1856:1946:2069:23:214:306:401:510:569:578:614:741:775:801:810:891:948:982:1033:1059:1180:1263:1404:1419:1429:1488:1764:1988:2030:129:197:247:249:266:329:371:385:535:592:679:805:815:852:855:861:901:917:990:1001:1014:1216:1233:1374:1468:1574:1621:1641:1654:1789:1811:1870:1881:1913:1919:1941:2104:29:61:65:118:229:246:301:334:461:501:511:568:591:598:617:701:747:778:860:879:886:897:903:952:984:1002:1021:1037:1049:1098:1143:1215:1555:1577:1609:1629:1661:1684:1768:1783:1918:1929:1956:2043:2096:10:39:80:147:169:302:363:380:448:465:492:505:508:516:560:634:753:786:819:835:850:898:907:936:956:1107:1111:1134:1166:1175:1239:1322:1360:1396:1398:1402:1545:1580:1623:1745:1788:1791:1871:1922:1992:2127:14:42:87:98:167:193:198:199:215:296:316:322:323:434:485:488:499:583:604:720:756:796:836:837:838:880:950:988:1070:1214:1217:1253:1257:1350:1397:1568:1644:1645:1666:1726:1728:1730:1765:1799:1828:1905:1911:1962:1967:2110:6:51:53:104:117:131:132:400:433:455:463:476:477:482:517:520:522:523:544:546:559:602:609:773:857:884:889:895:937:967:994:996:1000:1006:1007:1009:1017:1018:1022:1036:1061:1164:1185:1203:1205:1213:1229:1281:1333:1377:1530:1543:1582:1646:1679:1815:1979:1987:2019:47:251:326:372:525:557:584:648:706:719:785:797:847:877:882:932:944:951:966:1077:1108:1114:1189:1321:1462:1533:1583:1617:1636:1650:1687:1731:1739:1751:1757:1786:1837:2042:2059:2120:30:46:62:100:114:148:158:171:244:254:259:377:490:498:515:538:565:586:650:677:687:726:739:761:772:811:853:875:921:929:973:974:1013:1056:1074:1094:1121:1129:1158:1173:1247:1278:1298:1391:1445:1450:1692:1695:1725:1735:1806:1874:1896:1937:1949:1951:2007:2017:2021:16:22:35:72:78:90:140:154:189:202:217:263:275:277:307:327:331:364:367:397:406:407:408:547:562:571:580:589:593:619:653:678:682:704:710:746:885:890:915:945:971:972:995:1015:1050:1063:1096:1171:1190:1196:1212:1219:1258:1274:1309:1340:1345:1355:1359:1367:1405:1465:1494:1497:1625:1667:1717:1732:1879:1942:1955:2028:2038:2050:2071:2074:2083:2086:2095:2128:3:8:56:57:58:95:103:128:135:139:160:181:185:200:220:234:245:318:336:354:370:383:386:430:459:469:486:496:573:590:597:645:656:659:680:691:692:717:745:751:765:770:777:780:833:883:957:962:980:985:991:992:997:1008:1069:1078:1087:1109:1118:1124:1182:1186:1198:1200:1208:1209:1231:1244:1254:1255:1339:1358:1476:1479:1551:1573:1596:1598:1603:1604:1608:1631:1634:1683:1697:1714:1723:1746:1781:1784:1798:1809:1868:1869:1884:1895:1925:1944:1950:1969:1981:1995:2018:2039:2046:2048:2054:2077:2100:2102:2103:2124:12:27:32:70:74:84:94:97:121:133:161:194:208:212:225:252:281:289:298:303:321:324:340:392:413:432:439:456:474:491:500:506:509:541:556:558:579:587:606:608:631:636:647:668:690:698:699:703:705:776:781:788:798:856:864:892:914:916:923:942:949:975:981:983:998:1024:1030:1034:1038:1080:1091:1105:1112:1159:1160:1162:1165:1176:1199:1202:1259:1262:1273:1288:1302:1313:1334:1338:1363:1390:1399:1401:1416:1428:1431:1438:1439:1448:1474:1475:1501:1523:1527:1531:1539:1547:1557:1567:1570:1593:1652:1709:1718:1738:1760:1812:1819:1846:1858:1862:1898:1939:1972:1974:1976:1982:2011:2029:2032:2082:2092:2112:2116:18:25:26:37:64:86:112:113:142:166:172:175:177:180:182:190:192:210:221:230:231:233:238:256:269:272:276:314:365:373:384:395:419:428:429:457:467:471:513:527:549:564:566:576:577:582:601:605:616:622:633:638:640:649:688:697:702:709:722:732:733:734:755:769:795:803:820:865:869:872:878:887:900:910:927:930:1028:1043:1044:1051:1053:1055:1062:1064:1065:1079:1081:1086:1106:1132:1161:1167:1218:1220:1222:1224:1241:1242:1256:1260:1292:1297:1386:1394:1411:1421:1425:1426:1459:1485:1499:1528:1537:1559:1569:1576:1579:1610:1643:1700:1702:1720:1721:1722:1743:1800:1829:1859:1867:1892:1904:1914:1926:1932:1935:1938:1940:1957:1959:1961:1971:1980:1985:1994:2003:2014:2041:2051:2057:2078:2099:2105:2107:2109:2115:2123:2130:28:40:49:67:82:83:96:99:101:105:110:111:125:137:150:163:178:191:203:206:211:213:227:240:243:257:267:273:288:292:293:299:304:332:335:351:362:375:396:399:405:427:447:458:468:473:478:480:507:521:570:625:632:635:637:641:661:664:670:681:708:727:749:752:782:789:793:799:808:829:842:843:848:858:866:870:888:904:906:920:933:938:946:958:963:977:978:979:1003:1005:1011:1027:1040:1041:1047:1058:1066:1072:1075:1084:1095:1102:1116:1119:1123:1125:1144:1153:1157:1170:1174:1211:1234:1237:1248:1261:1294:1301:1304:1305:1315:1320:1336:1347:1422:1437:1441:1447:1451:1456:1461:1467:1471:1487:1490:1496:1500:1507:1520:1521:1614:1640:1657:1665:1681:1689:1715:1719:1740:1748:1759:1775:1782:1790:1797:1802:1817:1836:1841:1849:1857:1861:1863:1880:1885:1897:1906:1908:1909:1912:1934:1975:1977:1983:1989:1991:2024:2026:2034:2035:2036:2040:2064:2065:2066:2067:2079:2087:2091 [0:100] -1:41:2:15:39:18:14:31:17:35:32:33:37:22:34:9:20:6:38:27:0:3:11:26:36:19:10:40:21:29:16:12:4:5:28:8:13:7:1:23:24 [-48:579759] -1:7:10:0:3:8:1:2:4:6:5:9 [3615:20188] [49.532380000000003:51.472299999999997] [2.5964:6.2983500000000001] [0:719.08288324214902] [0.64100000000000001:0.79000000000000004] [295146:1926522] [162.41999999999999:4459.25] [1075:544759] [1.1599999999999999:215.34] [19288:36531] [0:17]
tree_sizes=4058 4131 4378 4812 3613 4611 5148 5211 4947 5022 5225 3634 3598 3600 5771 6146 5749 3626 6247 5631 5312 5769 5723 5996 5712 5557 6334 3628 5661 5985 6070 3637 6279 5564 5505 6092 5755 5913 5772 5806 3610 5566 3606 5528 5335 6221 3635 3606 5780 5727 3623 5579 5676 5780 5137 6027 3621 5550 5559 6180 3577 5384 5758 3587 3602 5839 5492 5287 3592 3599 5196 6192 6151 5156 6109 4928 5320 5551 6210 5693 3621 3581 5573 5612 3116 3597 5611 5860 5783 3615 5553 5621 3575 5831 6301 5346 3618 5744 5954 5342 6215 6326 5406 5762 6140 3615 5965 3587 6583 5598 6024 3600 3610 3577 5320 5980 5364 6032 3616 3581 5268 3617 3571 3589 6298 5323 5620 5531 3586 5741 5740 5983 5096 5544 6244 5911 5289 5511 6135 3591 5939 5289 6203 3600 5528 3571 5916 3596 5501 5994 6039 5556 3584 3600 5982 5794 3650 5799 5330 5368 5962 3590 5361 3587 5333 3597 5355 3608 5356 3588 5530 5918 5357 3596 5768 3597 5431 5118 3627 5341 5657 3617 5747 3589 3634 5131 3609 3617 5812 3630 3585 5609 3610 5987 5601 5748 5825 5774 6253 5808 6182 5957 5368 5506 2785 6129 5365 3559 5549 5403 5462 3595 6173 5524 5327 5416 3587 6175 5792 5431 3592 5546 5684 5986 5695 5673 5854 3616 6196 3583 5853 5421 5611 5581 3592 5587 3560 3587 3630 3590 6009 3608 5379 3580 5506 6400 5778 3586 5631 5747 6257 6012 3578 5617 5807 6095 5520 5863 6409 5469 3617 5405 6127 6306 5940 5725 5349 3594 5386 5498 3610 6199 6064 6144 5512 5254 5754 5522 6010 5524 5673 3597 3632 6010 5796 3574 3610 3586 3598 3572 3596 5505 3594 3571 5809 5806 5619 5186 5417 6065 5605 3583 5987 5842 5263 5380 5776 5764 3587 5728 5506 5670 3596 5612 3623 5314 3587 6150 3609 5819 5986 5587 6177 5459 5360 6033 6317 5405 5417 5588 3576 5989 5365 3568 3627 5384 6116 3588 3625 6071 5442 5617 5865 6075 5805 6115 5577 5874 5345 6119 3598 3628 3604 3589 5628 3612 6201 6132 5579 6224 6310 3580 3613 5496 6065 3603 6431 5728 5660 3605 3605 3619 3595 3612 5322 5318 3532 5754 5735 3583 5566 3582 5837 3644 3590 5839 3606 3591 5892 5178 5743 5380 5572 3596 6361 6163 5820 5605 5598 5806 5295 6123 5721 5787 6185 5652 5545 5547 4882 5614 5765 3580 5336 3610 6337 5661 5194 6128 5613 5446 3596 3575 5389 5523 5358 5800 5867 3626 6015 3631 3602 5827 6118 5812 3548 3577 5988 5621 5221 5682 6394 5831 6097 5347 6116 5603 3608 3576 5574 5664 5581 3581 5981 3603 5770 3645 5376 3556 5343 5702 5586 3633 5647 3620 5355 5978 5343 6059 5685 3600 5990 6243 5670 5470 5606 3599 5494 3570 5524 5773 5339 5804 6050 5407 5918 6406 5927 5498 5421 3626 3607 5107 3587 3636 5908 5379 3545 3572 5506 6239 3645 3636 3603 6030 5593 3581 5612 6154 5798 6155 5348 3581 3607 3577 5443 3622 6029 3565 3603 5616 5992 5565 6015 6040 5576 3587 5389 3619 5555 6055 5338 5984 5482 3639 3555 5531 5796 3584 3583 6206 5895 5135 5381 3598 3592 3599 5565 3595 5611 5940 6396 5752 5377 3597 5813 5903 5685 5411 3630 5782 3567 5582 5398 6208 5865 5598 6109 6252 5883 5433 5754 6141 5629 5568 6190 6031 5627 5878 6144 3602 5636 5429 5540 3649 5705 6037 3593 5852 3609 5157 3608 5840 5336 5426 5209 5615 5868 3607 5754 5527 6028 3616 3629 5800 5997 3633 5596 3619 5513 3608 6207 3634 5988 3629 5559 5538 5354 3592 5616 5362 3596 3593 5466 5273 5680 3626 3598 5318 5352 5588 6073 5711 3583 5541 5972 5573 3590 6595 5553 5327 5744 5686 3624 5309 3579 3601 5586 3613 5617 3597 6077 3550 6129 5331 5199 5388 3618 5437 5146 5817 5450 5782 5396 3622 5760 5567 6117 3597 6289 5332 5382 3642 3572 5883 5328 3604 3610 6199 3617 3616 6109 5946 5285 5854 5647 5888 3548 6044 5832 5295 5706 5694 5740 3594 5558 5988 3592 5658 5891 5420 5374 5314 6129 5772 5608 5290 5615 3628 5593 3657 3602 5888 5579 3601 5744 5767 5664 3580 5352 3603 5828 5629 3615 5532 5596 3600 5599 5517 5873 5729 5815 3627 5582 5800 6068 3575 5810 5316 5067 3607 5405 5852 5680 5414 5962 3605 5951 5780 5554 3624 6522 5985 5750 5800 5801 5745 5622 5580 5657 5159 5633 5871 5356 5375 5824 5631 6079 5866 3564 5617 5628 5927 5724 5562 5419 5410 3619 3626 5400 5380 5735 5587 5360 5916 5467 5556 3573 5531 3596 5222 5133 3607 6042 6087 3620 5505 3594 6075 3594 5362

Tree=0
num_leaves=40
num_cat=10
split_feature=2 10 7 7 9 11 7 10 18 2 8 2 10 18 8 2 2 8 2 2 9 10 19 9 8 10 8 11 13 8 8 9 18 2 5 11 4 5 10
split_gain=612.914 326.632 106.05 73.8025 63.634 46.649 44.3857 42.8256 34.7534 34.2878 33.9326 28.454 25.471 24.6935 24.1259 22.8685 19.9344 14.5088 14.193 13.5478 12.7237 12.2226 11.7456 9.38387 9.0235 8.01724 7.83474 7.74868 7.58221 7.25954 6.9819 6.87362 6.76726 9.09945 7.3203 6.45766 6.31001 6.21545 7.72601
threshold=2.5000000000000004 321.50000000000006 0 1 2 3 4 100.50000000000001 3435.7050000000004 1.5000000000000002 17.500000000000004 3.5000000000000004 135.50000000000003 3435.7050000000004 18.500000000000004 1.0000000180025095e-35 3.5000000000000004 30.500000000000004 1.5000000000000002 3.5000000000000004 5 554.50000000000011 101187.00000000001 6 28.500000000000004 466.50000000000006 25.500000000000004 7 51.204175000000014 24.500000000000004 8.5000000000000018 8 2272.8900000000003 1.5000000000000002 51.255841550000007 9 2355.0000000000005 50.891859050000008 476.50000000000006
decision_type=2 10 9 9 9 1 9 10 2 2 2 2 10 2 2 2 2 2 2 2 9 10 2 9 2 10 2 1 2 2 2 9 2 2 2 1 2 2 10
left_child=2 3 18 24 27 16 -5 9 11 15 32 12 35 22 -14 23 21 37 30 -10 28 29 26 -4 -2 -18 36 -3 -12 -6 -1 -16 33 -9 -34 -8 -11 -7 -39
right_child=1 4 7 6 5 17 8 10 19 13 20 -13 14 -15 31 -17 25 -19 -20 -21 -22 -23 -24 -25 -26 -27 -28 -29 -30 -31 -32 -33 34 -35 -36 -37 -38 38 -40
leaf_value=353814.36759590585 315893.49981166975 328902.78579499869 306987.14248462149 365779.10798620409 319896.35703730944 303784.85670410976 335807.71450922708 299781.99947847013 318995.7141615405 327001.42861281981 309989.28540385125 359024.28641793714 322998.57138718019 312791.28546179901 329002.85722563969 308638.32109019789 339810.57173486677 324399.57141615404 339610.42887358478 339610.42887358478 329002.85722563969 312991.428323081 331004.2858384595 336265.64137584029 336508.21452371404 326000.71430640994 332005.00014486944 359824.85786306509 319796.28560666845 333205.8573125613 319796.28560666845 339810.57173486677 299781.99947847013 317994.99985513056 309789.14254256926 345014.28612819832 320100.73417100043 319796.28560666845 309789.14254256926
leaf_weight=85 348 114 100 1296 371 755 799 197 312 152 1118 1879 505 229 164 698 288 216 413 274 232 376 391 184 96 311 97 284 255 168 143 610 2226 245 231 1125 904 286 404
leaf_count=85 348 114 100 1296 371 755 799 197 312 152 1118 1879 505 229 164 698 288 216 413 274 232 376 391 184 96 311 97 284 255 168 143 610 2226 245 231 1125 904 286 404
internal_value=325000 325000 325000 325000 325000 325000 325000 325000 325000 325000 325000 325000 325000 325000 325000 325000 325000 325000 325000 325000 325000 325000 325000 325000 325000 325000 325000 325000 325000 325000 325000 325000 325000 325000 325000 325000 325000 325000 325000
internal_weight=18881 10981 7900 7408 3573 3175 6964 7259 5668 2755 4504 5082 3203 1773 1279 982 1514 1661 641 586 1605 915 1544 284 444 599 1153 398 1373 539 228 774 2899 442 2457 1924 1056 1445 690
internal_count=18881 10981 7900 7408 3573 3175 6964 7259 5668 2755 4504 5082 3203 1773 1279 982 1514 1661 641 586 1605 915 1544 284 444 599 1153 398 1373 539 228 774 2899 442 2457 1924 1056 1445 690
cat_boundaries=0 66 130 132 133 199 201 203 204 206 207
cat_threshold=8388608 4 0 0 0 256 0 32768 262144 4194816 8192 0 0 0 0 512 128 0 524320 0 0 0 0 16 0 0 0 1073741824 0 0 0 4194304 0 0 0 0 0 0 0 8388608 32768 0 17039616 65536 0 4096 1073741824 0 0 0 0 0 536870912 1073741824 0 0 0 0 0 0 0 256 268500992 0 32 256 0 0 805306368 0 0 0 0 0 0 33554432 0 0 0 0 0 0 0 2 0 4096 0 0 2048 16384 16779264 512 0 0 0 64 0 0 2 0 0 0 0 0 0 0 64 0 67108864 2148007936 0 0 2097153 0 33554432 0 0 0 784 0 0 0 67108864 0 512 0 2048 0 0 2684356608 6029824 416 901 0 65536 0 0 0 256 0 32768 32768 4325376 131072 0 0 0 0 0 268435456 0 32 2147483648 0 0 0 1073741824 0 262272 132 1024 0 0 134217728 2 0 0 2 0 0 1 0 0 0 0 17039360 0 0 0 2147483648 16 0 0 2097152 0 0 0 0 128 1 136 0 0 0 0 0 0 4194304 1024 163844 513 4 12 26 16388 1 1032
is_linear=0
shrinkage=1


Tree=1
num_leaves=40
num_cat=8
split_feature=1 1 10 10 7 1 4 13 1 11 4 5 4 11 7 7 1 11 1 13 11 13 3 1 4 10 1 4 13 10 10 1 19 4 9 13 4 0 13
split_gain=653.872 204.876 191.348 158.358 51.666 44.848 42.2105 35.1458 34.5253 32.9904 21.3946 21.0234 21.824 18.9979 17.5804 14.5999 16.8916 13.8627 13.3954 13.0425 12.7448 12.1784 11.7247 10.3382 15.7866 10.2191 10.1219 10.0498 9.88942 9.54053 9.35337 11.2669 8.65901 8.59004 8.26789 7.52673 7.40278 7.08407 5.93675
threshold=151.15000000000003 91.040000000000006 149.50000000000003 340.50000000000006 0 205.25000000000003 2019.0000000000002 51.322600000000001 109.15000000000002 1 3270.5000000000005 50.994727805000004 3210.5000000000005 2 3 4 208.50000000000003 5 116.04500000000002 51.024068750000005 6 50.831175000000009 1.0000000180025095e-35 73.00500000000001 2019.0000000000002 411.50000000000006 150.08000000000001 3270.5000000000005 51.066620000000007 208.50000000000003 232.50000000000003 209.06500000000003 67069.500000000015 3985.0000000000005 7 51.024068750000005 9085.0000000000018 1.0000000180025095e-35 50.584130000000009
decision_type=10 8 10 10 9 10 2 2 10 1 2 2 2 1 9 9 10 1 8 2 1 2 2 10 2 10 8 2 2 10 10 10 2 2 9 2 2 2 2
left_child=1 7 4 9 -3 10 -4 14 17 27 35 12 -8 -10 -1 -11 19 36 -13 29 -7 -12 32 -16 -25 34 -14 -2 37 -17 -29 -32 -15 -30 -20 -5 -6 -19 -22
right_child=3 2 6 5 8 20 11 -9 13 15 21 18 26 22 23 16 -18 28 25 -21 38 -23 -24 24 -26 -27 -28 30 33 -31 31 -33 -34 -35 -36 -37 -38 -39 -40
leaf_value=-2924.1730393161615 38946.313986855326 14505.680585437909 9027.1721567938766 17949.26916644182 6943.4847641990773 20904.700267743647 9027.1721567938766 16432.386542562905 -7038.7850401982041 27214.568381173493 -15992.829953384717 -12167.942556635278 -20170.797741340353 -624.05626230844882 -21972.083492878202 3203.143560484009 21836.887132155658 -2981.0707798549788 -8162.2260644213593 15849.77060958298 -8563.0836403001704 -4883.4000372831615 8892.2985054698074 -3080.5416891294744 -13165.79759647094 -9984.2552150638385 -14177.955827398519 26389.415075945471 -3512.5072154988061 -11257.78576128631 1803.430201468542 26938.889445676359 9845.4847711234816 5984.124613246604 1839.1984665292964 -971.38624936187739 -1020.8755316228101 -6993.2651334058837 4923.6001655340178
leaf_weight=217 1584 643 315 110 280 528 81 118 108 323 320 573 1235 354 1564 279 599 207 324 169 100 567 638 218 1569 522 444 1599 364 174 211 256 361 197 430 190 254 414 442
leaf_count=217 1584 643 315 110 280 528 81 118 108 323 320 573 1235 354 1564 279 599 207 324 169 100 567 638 218 1569 522 444 1599 364 174 211 256 361 197 430 190 254 414 442
internal_value=-0.00128787 -0.0313588 -0.0128695 0.0448401 0.0190149 0.000576198 -0.0439064 -0.0701926 0.00838172 0.0640715 -0.026202 -0.0500388 -0.0656996 0.0310117 -0.0737473 0.0386182 0.0280283 -0.010842 -0.0351103 0.00514192 0.0302799 -0.0418195 0.0373494 -0.0772464 -0.0670024 -0.0236701 -0.0705953 0.0745182 -0.0228202 -0.0125701 0.0654625 0.0404325 0.0199925 -0.00374079 -0.00875051 0.0199624 0.0157975 -0.0403968 0.00796545
internal_weight=18881 11430 7744 7451 3820 2257 3924 3686 3177 5194 1187 3609 1760 1461 3568 1544 1221 1716 1849 622 1070 887 1353 3351 1787 1276 1679 3650 1182 453 2066 467 715 561 754 300 534 621 542
internal_count=18881 11430 7744 7451 3820 2257 3924 3686 3177 5194 1187 3609 1760 1461 3568 1544 1221 1716 1849 622 1070 887 1353 3351 1787 1276 1679 3650 1182 453 2066 467 715 561 754 300 534 621 542
cat_boundaries=0 66 67 68 131 196 197 198 200
cat_threshold=0 0 0 67108864 0 256 0 36864 262144 4325380 0 0 0 0 0 512 0 0 524320 0 0 0 0 0 0 2097152 0 5120 0 0 134217728 0 0 0 0 0 0 0 0 0 0 1040 17039616 65536 0 4096 0 0 67108864 65536 0 0 0 268435456 0 0 0 8 0 0 0 0 268435456 0 4194304 16640 909 2 0 4 0 0 0 256 0 0 0 4194304 0 0 0 0 0 0 0 0 819200 0 0 0 0 0 0 0 0 0 0 0 0 0 0 0 2 0 0 0 0 8388608 0 0 17039616 65536 0 0 0 0 0 0 0 0 0 0 0 0 0 0 0 0 0 1 268435456 0 1024 0 0 0 0 0 8192 0 0 0 0 0 0 0 128 302006272 0 0 0 0 0 0 0 0 0 0 0 0 0 0 0 0 0 0 0 0 0 2048 0 0 0 0 0 0 0 2147483648 0 134217728 0 0 0 0 2147483648 0 0 1 0 0 0 0 67108864 0 0 4096 932 389 49156 1
is_linear=0
shrinkage=0.200143


Tree=2
num_leaves=40
num_cat=4
split_feature=1 1 10 10 7 7 7 7 18 3 18 13 1 13 8 1 18 6 21 10 8 1 6 2 21 1 10 1 16 5 20 1 10 6 8 6 1 8 13
split_gain=477.648 176.235 157.703 95.5065 53.056 32.842 31.8807 29.2823 28.7066 28.0481 21.0909 21.5044 19.6156 18.8172 15.4761 14.1764 14.1323 13.9569 13.4539 13.0381 12.6555 12.2292 9.92605 9.2151 9.05277 9.03708 8.70215 8.71909 8.25023 8.22327 7.65984 7.58747 7.35806 7.3127 7.2111 10.4012 7.13108 7.03174 6.71272
threshold=162.04000000000005 93.050000000000011 212.50000000000003 395.50000000000006 0 1 2 3 3101.8200000000006 1.0000000180025095e-35 2272.8900000000003 50.990772727272734 255.50000000000003 51.322600000000001 18.500000000000004 280.27000000000004 2272.8900000000003 4.8214746500000008 25494.500000000004 173.50000000000003 25.500000000000004 81.060000000000016 4.8949228630000006 3.5000000000000004 28018.500000000004 126.10000000000001 214.50000000000003 290.50000000000006 0.75750000000000017 50.824733050000006 144.27500000000003 115.05500000000002 189.50000000000003 3.6370520900000005 16.500000000000004 4.8462207500000014 103.03500000000001 20.500000000000004 50.831175000000009
decision_type=10 8 10 10 9 9 9 9 2 2 2 2 10 2 2 10 2 2 2 10 2 10 2 2 2 10 10 10 2 2 2 10 10 2 2 2 10 2 2
left_child=1 6 4 5 -3 -2 -1 25 15 14 17 20 -5 19 16 22 -9 -4 -10 21 -12 -8 28 29 30 -6 -20 -28 -7 -18 -11 -31 -30 -27 -13 -36 -26 -34 -16
right_child=3 2 10 12 7 8 13 9 18 24 11 34 -14 -15 38 -17 23 -19 26 -21 -22 -23 -24 -25 36 33 27 -29 32 31 -32 -33 37 -35 35 -37 -38 -39 -40
leaf_value=1628.168280235109 45277.583709136998 15009.44430912706 7237.6174079349139 -5184.8494286422574 -8212.6133941654334 37432.599178836237 -12059.080313740051 9412.59859935858 -2681.1555657282961 1069.040357591324 -18759.78828270785 -9948.9959838484629 14873.276544099903 6428.1539439188027 -4130.9034232778422 55957.20175825301 -11566.002641685578 -11472.958145857083 15083.212901479414 -19776.099308388748 -6445.2034326188759 -5352.4858556356958 6677.475081461449 5229.7787601743175 2588.2896210769454 -4754.3877792808325 -458.62884558815136 25048.113123898522 18732.631046406099 -6570.0184022808107 9085.9485616509719 1266.6211989467727 419.25784446719194 3376.2930595719163 -1822.9068417568208 -10968.806961963634 10826.41092793246 15913.745890398537 5201.5412281915906
leaf_weight=212 707 582 288 1034 264 452 1172 197 296 590 1205 624 395 102 183 659 223 132 624 1530 322 878 756 91 215 90 352 108 635 593 238 293 180 141 745 267 431 320 755
leaf_count=212 707 582 288 1034 264 452 1172 197 296 590 1205 624 395 102 183 659 223 132 624 1530 322 878 756 91 215 90 352 108 635 593 238 293 180 141 745 267 431 320 755
internal_value=-0.00239025 -0.0255039 -0.0092985 0.0414484 0.0140889 0.0542847 -0.06074 0.00630842 0.0474298 0.012287 -0.0411871 -0.0467813 -0.00426944 -0.0649839 -0.00132813 0.0585209 -0.0146766 0.000951294 0.0236267 -0.0675754 -0.0638637 -0.0570922 0.0511932 -0.0228348 0.0339276 -0.0389776 0.0339482 0.0130307 0.0601898 -0.0278632 0.0200437 -0.0191842 0.0510146 -0.0107938 -0.0308142 -0.0203546 0.0516773 0.0327723 0.0185479
internal_weight=18881 12363 8469 6518 4886 5089 3894 4304 4382 3809 3583 3163 1429 3682 2335 3002 1397 420 1380 3580 1527 2050 2343 1200 1474 495 1084 460 1587 1109 828 886 1135 231 1636 1012 646 500 938
internal_count=18881 12363 8469 6518 4886 5089 3894 4304 4382 3809 3583 3163 1429 3682 2335 3002 1397 420 1380 3580 1527 2050 2343 1200 1474 495 1084 460 1587 1109 828 886 1135 231 1636 1012 646 500 938
cat_boundaries=0 66 126 189 255
cat_threshold=0 0 0 67108864 0 0 0 0 294912 4194304 0 0 0 0 0 640 0 0 32 0 0 0 0 0 0 2097152 0 5248 0 0 134217728 0 0 0 0 0 0 0 0 0 0 0 17039616 0 0 4096 2147483648 0 67108864 65536 0 0 0 0 0 0 524288 8 0 0 0 0 268435456 0 4194304 16640 0 1024 0 0 0 0 0 0 32768 0 0 0 1024 0 0 128 0 0 0 32 0 0 0 0 0 2228352 4 0 0 0 0 0 0 0 8194 0 2147483648 1 0 0 0 0 17039360 0 0 0 2147483648 0 0 0 2097152 0 0 0 0 128 16777216 8 0 64 0 4 0 4194304 0 256 0 0 0 0 0 0 0 0 0 0 0 0 524288 0 0 0 0 0 0 0 0 1073741824 0 0 0 0 0 0 0 0 0 0 0 8388608 0 0 17039616 0 0 0 0 0 0 0 0 0 0 0 0 0 0 128 0 0 0 1 268435456 0 0 536870912 0 0 0 0 8192 1073741824 0 0 0 1024 0 0 0 4194304 2050 0 0 0 2048 128 16416 524288 67375617 0 0 0 0 16 4 1073741824 0 0 262144 0 1048576 655360 0 0 0 0 0 0 0 0 0 0 0 0 0 0 0 0 128 0 0 0 536879104 2048 0 0 0 0 2147483648
is_linear=0
shrinkage=0.200143


Tree=3
num_leaves=40
num_cat=8
split_feature=2 10 7 7 8 7 10 8 7 7 2 18 18 10 13 13 13 19 0 19 8 11 8 3 8 19 10 18 11 6 6 7 10 8 13 6 15 2 14
split_gain=255.564 138.056 72.0692 62.4397 47.3674 39.518 34.394 31.5783 27.5445 21.8392 19.1356 18.8867 18.6195 18.0289 17.8895 17.1482 11.6533 10.7275 10.5773 9.72168 9.35303 9.14396 8.80974 12.9115 7.52107 7.0646 6.81019 6.61868 6.45275 5.79641 6.31704 5.53562 5.29346 5.29012 5.17423 5.0105 4.61547 4.53702 4.39049
threshold=2.5000000000000004 234.50000000000003 0 1 22.500000000000004 2 111.37000000000002 13.500000000000002 3 4 1.5000000000000002 2272.8900000000003 2272.8900000000003 480.50000000000006 50.936900000000009 50.898283333333339 50.799400000000006 80430.000000000015 1.0000000180025095e-35 117005.50000000001 21.500000000000004 5 19.500000000000004 1.0000000180025095e-35 27.500000000000004 117005.50000000001 436.50000000000006 2272.8900000000003 6 4.6994130000000007 4.3430147000000003 7 1.0000000180025095e-35 30.500000000000004 50.65012500000001 5.196111342500001 2.4778840592857674 1.5000000000000002 4.8086083333333347
decision_type=2 10 9 9 2 9 10 2 9 9 2 2 2 10 2 2 2 2 2 2 2 1 2 2 2 2 10 2 1 2 2 9 10 2 2 2 2 2 2
left_child=2 3 31 -2 11 -4 10 -8 36 -6 18 29 -10 27 24 -13 -9 20 -7 26 -18 -12 23 -16 -14 -25 -17 -11 -15 30 -3 -1 -24 34 -29 -35 -5 -33 -30
right_child=1 4 5 8 9 6 7 16 12 13 21 15 14 28 22 19 17 -19 -20 -21 -22 -23 32 25 -26 -27 -28 33 38 -31 -32 37 -34 35 -36 -37 -38 -39 -40
leaf_value=20234.789776486381 32438.933444211765 -1416.0830551048675 -13954.284284759362 -2640.06724021829 -8153.8340211798031 3091.807353832236 -14253.917585617479 -15267.83561357329 22791.146196730067 26101.085733131007 -3319.1549666446335 -13980.833606673667 582.18024317469803 -5786.0746209133249 2341.938381015234 -2840.0372404109112 -10540.535985718599 -1569.1405618266331 -7916.8100861347066 1192.7357621187741 -3577.7087358393565 946.07490305435374 9675.3772804597738 5300.2076733052118 15554.688758323033 17194.728042521012 -9807.6826255373689 -6278.9790121994893 9101.1628468031504 -3271.8699366183423 19938.735289696826 -2561.4577703501332 22687.62712647728 24883.635530531938 5275.635541383248 7241.7809447328118 3304.4183410002706 7151.424664041936 -5383.2639758958458
leaf_weight=214 859 83 678 384 233 199 1523 418 658 233 444 870 1111 288 676 521 657 992 749 447 352 1361 276 503 299 203 535 116 242 83 129 104 790 237 701 178 170 209 156
leaf_count=214 859 83 678 384 233 199 1523 418 658 233 444 870 1111 288 676 521 657 992 749 447 352 1361 276 503 299 203 535 116 242 83 129 104 790 237 701 178 170 209 156
internal_value=-0.00284604 0.0169037 -0.0302971 0.0376168 -0.00740715 -0.0353866 -0.0306074 -0.04264 0.0289532 0.0130923 -0.013482 -0.025723 0.0341325 0.019396 0.0288898 -0.0316599 -0.0284113 -0.0220461 -0.0364939 -0.0186996 -0.0365687 -0.00138543 0.0392312 0.0286584 0.0109237 0.0475735 -0.029166 0.0320195 -0.00728555 0.0219915 0.0395056 0.0407521 0.0529071 0.0261385 0.0167646 0.0445265 -0.0131118 0.0219441 0.00930259
internal_weight=18881 10981 7900 5929 5052 7373 6695 3942 5070 2384 2753 2668 4516 2151 3858 2373 2419 2001 948 1503 1009 1805 2448 1382 1410 706 1056 1465 686 295 212 527 1066 1232 817 415 554 313 398
internal_count=18881 10981 7900 5929 5052 7373 6695 3942 5070 2384 2753 2668 4516 2151 3858 2373 2419 2001 948 1503 1009 1805 2448 1382 1410 706 1056 1465 686 295 212 527 1066 1232 817 415 554 313 398
cat_boundaries=0 66 132 196 261 324 325 326 392
cat_threshold=8388608 0 0 0 0 0 0 32768 0 4325888 139264 0 0 0 0 0 128 0 524320 4194304 0 0 0 0 0 0 0 1073741824 536871424 0 0 0 0 0 0 0 0 0 0 0 0 0 17039616 0 0 4096 0 0 0 0 0 0 0 3221225472 0 0 0 128 0 0 0 0 268500992 0 32 256 0 0 0 0 134217728 256 0 4096 32768 4194304 131072 0 0 0 0 128 33554432 0 32 0 0 0 0 0 0 128 0 1024 0 0 0 0 272629760 0 2 0 2147483648 1 0 0 0 0 16777216 65536 512 4096 2147483648 0 0 0 0 0 0 2147483648 0 0 16777216 8 0 64 0 0 8192 32768 0 16384 0 0 536870912 0 0 0 0 0 1073741824 64 0 0 1024 0 0 0 0 0 0 0 0 2048 0 0 16777216 220205568 0 0 0 0 0 0 1073741824 0 0 0 0 0 2048 0 0 8388608 8256 2147483664 0 0 0 0 4 8 0 0 0 32768 0 8388608 0 0 0 0 0 65536 1 2147485696 0 65536 536870912 0 0 0 0 67108864 0 0 0 0 0 0 0 0 16384 2 0 0 0 0 2048 16793632 524288 134500417 0 0 0 0 0 0 0 0 0 262144 0 0 2048 0 0 8388624 0 2147483652 0 0 0 0 117440512 0 0 0 0 268435456 0 128 0 0 0 536870912 2048 0 4194304 0 2097152 0 0 268435456 0 0 0 0 0 0 0 0 16384 0 0 16384 0 0 0 0 128 0 0 0 16384 0 0 0 0 0 128 0 0 0 0 2 0 0 0 0 0 64 8388608 8192 2147483656 0 0 2097152 0 0 0 0 0 0 0 0 0 2097152 0 0 0 0 0 4194304 74 1034 8388608 0 0 0 0 0 0 32768 0 512 0 0 0 0 0 0 0 0 0 4194304 0 0 0 0 0 0 0 1073741824 0 0 0 0 0 0 0 0 0 0 0 0 0 0 16777216 0 0 4096 0 0 0 0 0 0 0 1073741824 0 0 0 0 0 0 0 0 268435456 0 0 256
is_linear=0
shrinkage=0.200143


Tree=4
num_leaves=40
num_cat=2
split_feature=1 1 10 10 1 11 1 1 11 21 13 5 13 4 13 6 5 10 1 2 1 1 5 19 13 10 14 4 1 14 21 13 10 1 1 21 3 4 19
split_gain=314.994 101.985 88.9502 62.4516 32.5483 27.2391 25.9577 23.0023 21.3915 21.2552 18.1722 14.5577 12.8359 11.7269 11.5216 11.4034 12.9394 10.7242 9.61022 8.86447 7.93598 7.74005 7.56424 7.32993 7.25587 7.21407 10.5981 7.04882 6.92797 6.87711 6.75408 6.69533 6.65524 6.53809 6.5179 6.30523 6.1978 6.14198 5.71914
threshold=164.12000000000003 88.15000000000002 216.50000000000003 238.50000000000003 218.38000000000002 0 112.04500000000002 59.105000000000011 1 28018.500000000004 50.799400000000006 51.317366000000007 50.829100000000011 3270.5000000000005 50.665200000000006 4.3370384500000005 50.980909000000004 392.50000000000006 212.23000000000005 2.5000000000000004 114.10000000000001 290.50000000000006 51.095295000000007 101187.00000000001 51.116962500000007 120.50000000000001 5.0101000000000004 2085.0000000000005 105.02000000000002 4.9710416666666672 28313.000000000004 51.12948333333334 197.50000000000003 110.09500000000001 140.00500000000002 29674.500000000004 1.0000000180025095e-35 1424.0000000000002 101187.00000000001
decision_type=10 8 10 10 8 1 8 10 1 2 2 2 2 2 2 2 2 10 10 2 8 10 2 2 2 10 2 2 8 2 2 2 8 8 8 2 2 2 2
left_child=1 7 5 14 12 9 19 -1 11 31 34 15 -5 -6 -2 16 36 28 25 35 -19 -15 33 -14 -18 26 -16 -10 -12 -8 -29 -3 -26 -11 -4 -7 -9 -17 -27
right_child=3 2 10 4 13 6 29 8 27 22 17 -13 23 21 18 37 24 20 -20 -21 -22 -23 -24 -25 32 38 -28 30 -30 -31 -32 -33 -34 -35 -36 -37 -38 -39 -40
leaf_value=-15895.855304200999 3612.5266460752196 -4148.1317158415286 -16270.50002994125 -7145.0475711157123 27602.149334177411 -328.07884119501335 6823.5957010620004 -14427.186088217719 -3238.9203380900594 -3082.5726076466844 -7114.0812275649823 38865.561857998626 -1146.515277655456 2040.237260996757 16434.211684136841 3695.1205950295389 655.3712354600251 -13751.971440284142 32293.083281110037 -5912.5832577584251 -5812.8923838588335 18725.72054043545 9865.6987751408778 6745.3968300717006 -858.38034374464701 2663.770602261206 861.9680923545161 -12386.097630436625 -1221.3715910207977 -777.12995931766091 -5702.7267249044144 464.94392569001184 -7406.9357696077013 2617.6233757753821 -9379.951174163858 7904.0324283191749 -3548.4022767583401 -4447.8301718408811 18295.302876893824
leaf_weight=858 336 1301 562 425 435 816 1784 282 86 165 246 85 760 628 1006 146 265 261 1374 216 1171 471 331 300 155 341 180 608 1095 148 345 255 228 368 413 113 89 116 117
leaf_count=858 336 1301 562 425 435 816 1784 282 86 165 246 85 760 628 1006 146 265 261 1374 216 1171 471 331 300 155 341 180 608 1095 148 345 255 228 368 413 113 89 116 117
internal_value=-0.00316404 -0.0216163 -0.0108776 0.0330495 0.0121619 0.00533323 0.0177925 -0.0520321 -0.0419706 -0.0105391 -0.0346493 -0.0248583 -0.00895792 0.0326012 0.0518437 -0.0303701 -0.0399391 -0.0263728 0.0557577 -0.0060264 -0.0384143 0.0215652 0.0145806 0.00283013 -0.0228283 0.045388 0.0536287 -0.0635825 -0.0134992 0.0319975 -0.0691428 -0.0245554 -0.0404166 -0.000187477 -0.0581489 0.00247547 -0.0697146 0.00685473 0.0239938
internal_weight=18881 12508 9245 6373 3019 5497 3077 3263 2405 2420 3748 1366 1485 1534 3354 1281 1019 2773 3018 1145 1432 1099 864 1060 648 1644 1186 1039 1341 1932 953 1556 383 533 975 929 371 262 458
internal_count=18881 12508 9245 6373 3019 5497 3077 3263 2405 2420 3748 1366 1485 1534 3354 1281 1019 2773 3018 1145 1432 1099 864 1060 648 1644 1186 1039 1341 1932 953 1556 383 533 975 929 371 262 458
cat_boundaries=0 1 2
cat_threshold=1114 1956
is_linear=0
shrinkage=0.200143


Tree=5
num_leaves=40
num_cat=12
split_feature=7 9 2 7 10 7 10 7 2 11 9 14 14 5 21 7 5 2 2 21 13 19 14 13 9 5 9 5 19 14 9 11 10 21 14 2 10 13 10
split_gain=215.933 196.378 80.705 52.7752 39.2981 38.0511 32.5761 20.611 20.4208 15.225 12.2866 10.8343 12.4332 9.69554 9.64401 9.48204 8.88935 8.37471 7.5345 7.45891 7.92808 7.19497 6.8718 6.68797 6.66104 6.58108 6.07382 6.64003 6.61514 6.02791 6.22904 5.71826 6.41494 5.00373 4.68184 4.66762 4.62285 4.25888 4.06327
threshold=0 1 2.5000000000000004 2 406.50000000000006 3 201.50000000000003 4 1.5000000000000002 5 6 4.9214833333333337 4.4669500000000015 51.130170886000009 29738.000000000004 7 51.169015000000009 5.5000000000000009 1.5000000000000002 28747.500000000004 50.65012500000001 128493.00000000001 4.3390500000000012 50.792830000000002 8 50.899997117500007 9 50.832930000000012 128493.00000000001 4.8187607142857152 10 11 674.50000000000011 25753.500000000004 4.9214833333333337 3.5000000000000004 161.50000000000003 50.612100000000005 308.50000000000006
decision_type=9 9 2 9 10 9 10 9 2 1 9 2 2 2 2 9 2 2 2 2 2 2 2 2 9 2 9 2 2 2 9 1 10 2 2 2 10 2 10
left_child=18 10 5 -4 7 -3 8 -5 24 11 -2 12 16 29 23 -10 21 31 -1 20 -17 22 -9 -8 -7 -24 28 -28 38 33 -31 37 -33 -11 -21 -13 -15 -6 -25
right_child=1 2 3 4 17 6 14 9 15 13 -12 35 -14 36 -16 19 -18 -19 -20 34 -22 -23 25 26 -26 -27 27 -29 -30 30 -32 32 -34 -35 -36 -37 -38 -39 -40
leaf_value=11522.1862528653 38055.277908473458 -11048.413805029462 -10492.651041827845 -3340.9451465768216 -18128.675313156593 876.21070017226975 -14489.1025635142 1159.2071926493547 4719.4352567184187 -8205.8556963797328 16085.770474416347 -2425.6164327070715 11833.101131234118 11182.490495939175 -1997.6355537102004 -6829.236014130699 -1144.6385631059989 17091.084656001945 31801.412808257239 3359.8394116933514 -1460.3585712306146 10178.341722983612 38297.034394252623 -914.06161741503411 -6176.7988557488543 3573.6705337538647 -866.88944329112769 -10384.103789978897 1350.8812823765124 3020.2816021945573 -1521.103719063165 -653.8123110384787 -7793.1249673612692 -1282.280608100963 -964.903057836112 5120.3019347018962 1727.0612320747425 -6647.8462809060002 -9481.9930694064442
leaf_weight=155 574 676 623 513 86 177 449 896 219 187 785 262 771 236 214 127 493 95 883 400 1801 594 90 151 1155 126 90 889 148 685 321 653 346 1025 266 178 258 783 501
leaf_count=155 574 676 623 513 86 177 449 896 219 187 785 262 771 236 214 127 493 95 883 400 1801 594 90 151 1155 126 90 889 148 685 321 653 346 1025 266 178 258 783 501
internal_value=-0.00372583 -0.00890643 -0.0149487 -0.00252843 0.00158091 -0.030736 -0.0259515 0.00894279 -0.0151829 0.0121728 0.0639245 0.0210629 0.025466 0.000955588 -0.0443254 -0.00551254 0.0177872 -0.0232881 0.0845394 -0.00891306 -0.0152537 0.0246253 0.0151081 -0.0482222 -0.0355902 0.0470859 -0.0426762 -0.0534844 -0.028388 -0.00469061 0.00675903 -0.026239 -0.0153608 -0.0141924 0.00930506 -0.00817317 0.0262931 -0.0381049 -0.0374053
internal_weight=18881 17843 16484 9221 8598 7263 6587 6635 4145 6122 1359 3410 2970 2712 2442 2813 2199 1963 1038 2594 1928 1706 1112 2228 1332 216 1779 979 800 2218 1006 1868 999 1212 666 440 494 869 652
internal_count=18881 17843 16484 9221 8598 7263 6587 6635 4145 6122 1359 3410 2970 2712 2442 2813 2199 1963 1038 2594 1928 1706 1112 2228 1332 216 1779 979 800 2218 1006 1868 999 1212 666 440 494 869 652
cat_boundaries=0 66 68 134 198 262 263 265 314 316 318 320 321
cat_threshold=538968064 0 0 0 0 0 1073741824 8388640 0 4456448 0 2048 0 0 0 2105344 0 0 0 0 0 0 0 0 0 128 536870916 1073741952 0 1048832 0 0 0 0 0 0 0 0 1082130433 0 0 0 285212672 0 0 4096 2147483648 0 128 0 0 0 32768 0 0 268435456 524288 0 0 0 0 0 268435712 0 0 256 3092840984 416 0 0 0 0 0 16 16 0 32 33554432 256 0 0 0 0 0 0 130 0 0 0 0 0 16793602 16777216 4096 0 0 0 0 0 1048576 0 2048 0 0 0 0 0 8 0 8388608 8192 2147483648 0 0 2097152 0 16777216 536870912 0 0 256 0 0 0 67108864 0 0 0 0 16388 16 0 33554432 65536 0 0 536870912 0 0 0 0 0 1140850688 64 0 0 512 0 0 0 16384 2050 0 0 0 2048 128 0 16777216 67109376 0 0 0 0 0 2147483648 2 0 0 0 0 0 2048 0 1 8388608 8256 2147483648 0 0 1 0 0 65536 2048 0 0 32768 0 8388608 0 0 0 0 0 0 1 2147485696 0 65600 805306368 0 0 0 0 0 0 0 0 32 0 0 16384 0 16388 0 0 4096 0 0 2048 32 0 8257 0 0 0 128 2 0 4194304 0 2 0 0 0 0 0 0 16 67108864 65544 0 0 0 0 67108864 524288 0 0 16 0 0 524288 2097152 0 0 0 0 0 4202497 536872960 933 0 128 0 0 0 0 0 0 0 32768 262144 0 1073741824 0 0 0 0 512 0 0 524320 0 0 0 0 0 0 0 128 0 0 0 0 0 0 0 0 0 0 0 0 8388608 0 0 33816832 0 0 0 0 0 67108864 262145 512 442368 512 262144 512 1098
is_linear=0
shrinkage=0.200143


Tree=6
num_leaves=40
num_cat=8
split_feature=1 7 7 7 1 1 7 7 3 13 7 3 7 8 8 13 19 1 1 13 1 16 14 20 21 14 14 1 6 21 17 8 19 20 1 11 13 14 8
split_gain=214.012 90.9227 68.7347 50.018 49.9081 43.3449 41.4028 31.9537 20.204 17.1881 14.5277 12.0699 11.7519 10.7326 9.57634 9.54502 10.111 9.14242 8.96741 6.83959 6.67579 6.61245 13.1112 6.37909 7.38121 5.833 5.62596 5.39012 7.78879 5.33499 4.94115 4.93087 4.85084 4.65946 6.32608 4.23051 4.18623 4.11114 4.10582
threshold=140.00500000000002 0 1 2 70.155000000000015 220.45500000000001 3 4 1.0000000180025095e-35 50.799400000000006 5 1.0000000180025095e-35 6 27.500000000000004 19.500000000000004 50.799400000000006 117005.50000000001 96.125000000000014 77.060000000000016 51.32115000000001 98.095000000000013 0.7420000000000001 4.3390500000000012 28.305000000000003 28778.500000000004 4.8907000000000007 4.8187607142857152 50.190000000000005 4.6994130000000007 28389.000000000004 1211574.0000000002 25.500000000000004 93676.500000000015 95.815000000000012 108.05000000000001 7 50.985775000000011 4.4669500000000015 28.500000000000004
decision_type=10 9 9 9 8 10 9 9 2 2 9 2 9 2 2 2 2 8 8 2 8 2 2 2 2 2 2 10 2 2 2 2 2 2 8 1 2 2 2
left_child=2 -2 18 38 27 10 -6 -8 9 20 31 15 -11 -7 19 30 23 25 -1 21 -9 22 -14 24 -17 -10 37 -4 -29 -13 -12 -5 -19 34 -23 -35 -28 -16 -3
right_child=1 3 4 5 6 13 7 8 17 12 11 29 14 -15 26 16 -18 32 -20 -21 -22 33 -24 -25 -26 -27 36 28 -30 -31 -32 -33 -34 35 -36 -37 -38 -39 -40
leaf_value=144.76720618973323 27539.324533000112 -9365.3296805754653 -14094.913685884148 -3586.392940704749 -10567.97106841485 9878.4879803337481 3577.6725132096058 -11802.672101169086 -365.08209697759486 -7116.1644304982474 -487.93024003865276 2947.953851285562 -8732.6137802426729 22529.365612207755 -186.19256982892816 -281.57054568265102 6982.4179474191005 274.7092683147643 15067.213910348468 7879.4410052382145 -8760.3501240768583 -6832.9010384239427 6662.2209855446854 -43.078441418140017 15074.1756335634 -2887.9293040627431 -522.72176355503768 -5732.8725908676706 -7835.3206140816965 8080.9452689092459 -5344.2815993649219 1217.565496283245 4742.0685876917159 902.55524177715745 -5152.6262718270127 -4100.1634837888814 -7521.0892299029565 7041.2811584982082 -2135.3895792573448
leaf_weight=94 813 427 527 367 634 1361 572 210 377 427 448 501 86 1015 847 123 640 903 350 81 730 685 147 1709 138 162 187 716 259 319 289 167 294 275 758 716 219 160 148
leaf_count=94 813 427 527 367 634 1361 572 210 377 427 448 501 86 1015 847 123 640 903 350 81 730 685 147 1709 138 162 187 716 259 319 289 167 294 275 758 716 219 160 148
internal_value=-0.00338663 0.0202489 -0.0225951 0.013399 -0.0260234 0.0180298 -0.0200833 -0.016018 -0.019616 -0.0255573 0.00691721 0.0108987 -0.0204994 0.0400828 -0.0171032 0.00558978 0.011269 -0.000806665 0.0536906 -0.0240278 -0.050207 -0.0257701 0.00642087 0.00416376 0.0332577 -0.0224325 -0.00375149 -0.0596654 -0.0507649 0.0326752 -0.0145133 -0.0238799 0.00893957 -0.0288528 -0.0361116 -0.018263 -0.0236168 0.00426985 -0.0428795
internal_weight=18881 8465 10416 7652 9972 7077 8470 7836 7264 5528 4701 4167 4588 2376 4161 3347 2610 1736 444 2748 940 2667 233 1970 261 539 1413 1502 975 820 737 534 1197 2434 1443 991 406 1007 575
internal_count=18881 8465 10416 7652 9972 7077 8470 7836 7264 5528 4701 4167 4588 2376 4161 3347 2610 1736 444 2748 940 2667 233 1970 261 539 1413 1502 975 820 737 534 1197 2434 1443 991 406 1007 575
cat_boundaries=0 65 132 195 261 326 392 458 459
cat_threshold=0 1024 0 524288 0 0 1073741824 256 0 4456448 1073872896 128 1024 0 0 8388736 0 0 32 0 16 0 0 0 0 131200 536871040 0 0 0 0 0 0 0 0 0 0 1 1073741824 0 0 0 17039360 0 512 4096 2147483648 0 0 0 0 0 0 0 0 0 0 0 0 0 0 0 256 32768 4096 545259520 0 0 71303168 0 0 0 0 0 131584 139264 0 0 0 4194304 8192 0 0 524288 0 0 0 0 2048 0 0 0 1073741952 536871424 0 0 0 0 0 0 0 0 0 32 0 0 0 268435456 0 0 4096 0 0 0 1024 0 512 1 1073741824 0 0 0 0 0 0 0 0 268435456 0 0 16640 1024 0 64 268435456 0 0 16 16 0 0 0 256 0 131072 0 16384 0 0 130 0 0 0 0 1024 16384 16777216 64 0 0 0 0 0 0 0 2048 4096 0 0 0 0 0 0 8388624 8192 2148007936 0 268435456 2162688 0 67108880 536870912 0 0 0 4096 0 0 67108864 0 0 0 0 4 16 0 0 536870912 0 0 16 0 67108864 1140850688 0 0 0 0 0 0 0 0 2 0 4096 0 2048 2176 268451840 0 16781313 0 0 0 0 16 0 2 0 0 0 0 0 0 0 0 8388608 8192 2147483648 0 0 1 0 0 0 16777216 16777216 512 36864 256 0 0 0 0 0 0 65536 4194304 0 0 2147483648 0 0 0 0 0 256 0 33024 0 4194304 0 0 0 0 16384 512 33554560 0 262176 0 0 0 0 0 0 0 0 0 0 0 134217728 0 0 131072 524288 2048 0 2147483648 0 0 0 0 50331904 0 0 0 8388608 0 134217728 0 0 67108866 536870912 2147483648 0 0 4194304 0 0 536870912 256 1 65536 0 32 0 0 536870912 0 0 0 0 2048 32768 0 0 0 1048576 0 0 0 301989888 0 0 0 0 0 2048 1073741862 0 14680064 0 0 0 128 0 0 268435456 4096 2 8192 0 0 0 0 1 0 0 0 0 0 1073741824 0 16777216 0 0 1 768 2147614720 0 128 2097152 0 0 0 0 256 8192 0 0 1024 0 0 0 1073741824 0 0 0 4096 0 0 4 0 0 0 0 0 4 0 0 0 0 0 0 0 524288 71582208 0 0 0 128 0 2 0 0 0 0 67108864 0 0 65536 0 0 0 0 0 0 0 0 0 536870920 0 0 0 0 0 128 0 8 0 1073750080 142606336 4 0 16384 0 1024 128
is_linear=0
shrinkage=0.200143


Tree=7
num_leaves=40
num_cat=12
split_feature=7 9 7 2 7 10 7 8 7 10 8 4 19 7 9 6 11 21 2 21 4 9 8 8 7 10 10 10 4 4 15 8 10 14 10 6 8 14 7
split_gain=132.587 131.546 55.0411 38.8625 46.9149 37.807 28.7209 22.2994 21.5627 15.7693 18.4389 12.0054 10.4296 11.6093 10.2429 9.52663 9.17898 8.65861 8.49379 7.26038 6.38026 6.28825 5.74382 5.71319 5.59922 5.12865 4.86506 4.62924 4.5888 4.52663 4.22202 4.18901 4.8161 4.72154 3.51724 3.23647 3.16949 3.11874 3.04081
threshold=0 1 2 1.5000000000000002 3 457.50000000000006 4 26.500000000000004 5 75.170000000000016 13.500000000000002 2019.0000000000002 70570.000000000015 6 7 4.3489834510000014 8 25494.500000000004 2.5000000000000004 29868.000000000004 3190.5000000000005 9 25.500000000000004 15.500000000000002 10 224.50000000000003 201.50000000000003 230.50000000000003 2019.0000000000002 3505.0000000000005 3.2494178260355904 20.500000000000004 145.50000000000003 4.5889000000000015 359.50000000000006 3.7423601735000003 17.500000000000004 5.0405687500000012 11
decision_type=9 9 9 2 9 10 9 2 9 10 2 2 2 9 9 2 1 2 2 2 2 9 2 2 9 10 10 8 2 2 2 2 10 2 8 2 2 2 9
left_child=-1 14 22 16 -5 6 23 8 -8 12 28 15 19 35 34 -12 21 -13 -7 24 -9 -4 -3 -6 -10 29 -16 -22 -11 -23 -20 32 33 -18 -2 -14 -28 -32 -15
right_child=1 2 3 4 5 18 7 20 9 10 11 17 13 38 26 -17 31 -19 30 -21 27 25 -24 -25 -26 -27 36 -29 -30 -31 37 -33 -34 -35 -36 -37 -38 -39 -40
leaf_value=22258.71056023279 34086.114916581908 -12840.665400923017 2123.9939237545709 11621.125649783266 -8536.4881938883991 -9825.1319517923821 -5718.2082265481095 10525.014792420578 2087.9642687684404 956.4850388076386 -2285.6371007877678 -5154.112204685006 1857.1532288025012 4534.2008580359961 15343.298376556277 12850.694593860642 -4107.4877808902211 -400.41111844917606 -5627.3710518863954 16240.050106095479 6648.1140173979384 81.622686666103093 -4626.8358902344444 -5197.41278751959 -819.40918923087406 -8381.0338834829017 -2723.0589203101454 534.09140119106758 -5313.3568086060395 -4335.706052444154 1361.7751701761076 -2017.5814216017993 -11471.847354194082 -4128.0215646621973 13724.746433044505 -2772.0955310834715 10262.975669062102 -5380.6418826010113 3086.9129502524684
leaf_weight=815 459 551 216 543 179 556 603 500 233 136 116 422 84 221 303 227 373 2519 1292 92 566 275 110 375 1508 203 112 799 1046 354 228 166 493 162 264 175 243 146 1216
leaf_count=815 459 551 216 543 179 556 603 500 233 136 116 422 84 221 303 227 373 2519 1292 92 566 275 110 375 1508 203 112 799 1046 354 228 166 493 162 264 175 243 146 1216
internal_value=-0.00341843 -0.00699739 -0.0119217 -0.00956106 -0.00559067 -0.00796808 -0.00316987 -0.000793021 -0.00509738 -0.00231248 -0.010216 -0.00249815 0.00768302 0.0189907 0.0521288 0.0328933 -0.034 -0.00663337 -0.0317847 -0.00278313 0.0190405 -0.0196593 -0.0680768 -0.0471316 -0.0056879 -0.0275476 0.0326199 0.0119431 -0.031643 -0.018909 -0.0246159 -0.0460163 -0.051165 -0.0379157 0.0691436 -0.0196597 0.0171577 -0.0058743 0.0259202
internal_weight=18881 18066 16685 16024 13782 13239 11017 10463 8598 7995 4466 3284 3529 1696 1381 343 2242 2941 2222 1833 1865 1048 661 554 1741 832 658 1365 1182 629 1666 1194 1028 535 723 259 355 374 1437
internal_count=18881 18066 16685 16024 13782 13239 11017 10463 8598 7995 4466 3284 3529 1696 1381 343 2242 2941 2222 1833 1865 1048 661 554 1741 832 658 1365 1182 629 1666 1194 1028 535 723 259 355 374 1437
cat_boundaries=0 67 69 134 193 259 325 391 393 394 396 456 522
cat_threshold=536870912 1024 0 0 0 128 0 8388640 0 0 0 0 0 0 0 2097152 0 0 0 0 0 0 0 0 0 128 536870912 3221225600 0 0 0 131072 0 0 0 33554432 0 0 1073741825 0 0 0 0 268435458 0 4096 2147483648 0 0 0 536870912 0 32768 0 0 134217728 0 0 0 0 0 0 268435456 0 0 256 1024 2555905560 416 0 0 0 0 0 0 0 0 1140850688 64 0 0 131072 0 537133056 4096 0 2 32768 1024 0 0 0 0 0 0 0 0 2097152 524288 16 32768 32 0 0 0 16384 0 0 0 0 8388608 64 2147483680 0 0 0 0 16 0 16777216 0 0 36864 256 2147483648 0 0 0 0 0 134218752 0 0 33554432 16384 0 0 4194304 64 0 0 0 0 4194304 131072 0 0 0 0 533120 41943040 0 524320 32 16 0 0 0 0 0 0 32768 32 268435456 4194304 0 0 0 8192 0 0 1 32 0 0 0 16777216 0 0 0 0 0 262144 1024 0 8192 1028 0 131072 0 0 0 33554432 0 128 536870912 0 0 16 0 0 32 0 0 0 0 0 0 0 0 0 0 0 0 2176 128 147456 16777216 4096 0 0 0 0 0 536870912 32768 4096 0 0 0 0 0 0 0 0 8192 24 0 64 0 0 50331648 536870912 0 0 8192 0 0 524288 69206016 0 0 0 134218240 0 4194305 0 0 65536 0 0 0 0 0 0 0 0 512 33554432 0 131072 512 0 0 0 0 8388608 0 4096 0 0 0 16777216 0 83894272 0 0 0 128 2 0 1073741826 2048 2 0 0 0 0 65536 0 0 0 524288 0 0 1 16 0 8 2048 4194305 0 0 0 128 0 0 0 0 0 81920 8192 2048 2097152 1024 0 0 0 0 0 0 0 32768 32768 0 0 0 1024 0 0 0 0 0 0 0 0 0 0 2147483648 0 136314881 0 1024 0 0 134217728 2 0 0 0 0 0 1048576 0 8388608 0 0 0 0 0 0 0 0 0 0 0 0 0 0 0 0 0 0 0 0 0 0 0 0 0 2147483648 0 416 908 393216 512 0 0 0 0 0 0 0 0 0 512 0 0 0 0 0 0 4 0 0 0 0 0 0 0 0 0 0 0 0 64 134217728 0 0 131072 0 0 0 0 0 8388608 1 0 0 0 0 0 0 0 67108864 0 0 0 0 268435456 0 0 1 0 0 8192 0 65536 0 0 0 256 0 4096 0 0 0 0 0 0 0 0 0 0 0 0 0 0 0 0 524288 0 0 0 0 0 0 0 0 0 0 0 0 0 0 0 0 0 33816576 0 512 0 0 0 0 0 0 0 0 0 524288 0 524288 0 0 0 0 0 0 2147483648 0 16384
is_linear=0
shrinkage=0.200143


Tree=8
num_leaves=40
num_cat=10
split_feature=1 7 9 7 7 1 7 10 10 7 1 9 11 7 10 19 14 8 14 1 8 10 10 11 20 6 5 1 5 10 5 1 5 19 1 10 12 19 12
split_gain=132.841 82.1981 71.8864 37.2157 31.8418 25.1191 21.0047 20.9728 18.2175 12.6616 11.9191 10.5133 9.23653 9.27717 9.05613 7.57322 7.41541 7.06776 6.6014 6.06272 6.01463 9.79193 5.87811 5.67626 6.38421 7.75904 5.66197 5.60365 5.37818 5.34402 5.10257 5.06126 4.77829 4.59897 4.39396 4.38186 3.87362 3.81325 3.72044
threshold=114.10000000000001 0 1 2 3 272.50000000000006 4 425.50000000000006 145.50000000000003 5 62.060000000000009 6 7 8 228.50000000000003 236959.50000000003 4.8308291666666685 4.5000000000000009 4.3345250000000002 293.50000000000006 19.500000000000004 147.50000000000003 386.50000000000006 9 95.815000000000012 4.3202081605000009 51.174265000000013 71.770000000000024 50.766916000000002 75.170000000000016 50.861528500000013 86.010000000000005 51.133922450000007 117005.50000000001 474.48500000000007 197.50000000000003 3845.5000000000005 67069.500000000015 8885.0000000000018
decision_type=8 9 9 9 9 10 9 10 10 9 10 9 1 9 8 2 2 2 2 10 2 10 10 1 2 2 2 10 2 8 2 10 2 2 10 8 2 2 2
left_child=4 17 19 -4 31 7 -6 9 10 -5 -8 -11 16 -14 -7 20 18 -2 -13 35 21 -15 23 -10 25 26 -25 -26 -9 37 -20 -1 -22 -30 -16 -3 -27 -12 -31
right_child=1 2 3 5 6 14 8 28 22 11 29 12 13 15 34 -17 -18 -19 30 -21 32 -23 -24 24 27 36 -28 -29 33 38 -32 -33 -34 -35 -36 -37 -38 -39 -40
leaf_value=197.56476717727057 7191.9165541423508 21089.993415623241 -10241.225924706032 -2999.1266836936661 -8042.0600752113005 23775.0915771744 -5650.6866282248329 -9484.1657768974183 -5920.4425291443513 -6110.7284511941662 -905.88023972127405 1427.0197904609838 4559.6145793683081 111.92072237246964 4608.5959945770092 3755.8018359720345 -435.06458688524293 25289.137018895912 27283.155035005129 39112.063854290704 329.75046282960795 -4024.1879011886831 -9035.1475376960825 -8936.1199035127775 -4816.2697637371493 1405.601428980134 -2934.3495557486635 2675.943431943369 -3503.2203397254816 -1188.6443133194109 8112.1536222472587 4937.8858519078913 5134.1086803714506 885.36264261790791 36291.437269990187 10787.040333045801 -3517.3114434505565 3688.1584839258353 -2348.4083060362964
leaf_weight=285 214 228 457 438 539 273 336 304 628 222 157 195 543 1718 661 745 176 687 166 267 1436 879 652 298 148 113 180 225 1445 1900 228 259 473 268 118 530 217 187 86
leaf_count=285 214 228 457 438 539 273 336 304 628 222 157 195 543 1718 661 745 176 687 166 267 1436 879 652 298 148 113 180 225 1445 1900 228 259 473 268 118 530 217 187 86
internal_value=-0.00302624 0.00872639 0.00423024 -0.000623366 -0.0270046 0.00188506 -0.0314135 -0.00145176 -0.027327 0.00358993 -0.0159107 0.0057316 0.00720477 0.00444779 0.0311779 0.0018448 0.0277338 0.0666206 0.0388558 0.0545872 -0.00124346 -0.00751177 -0.0397964 -0.0338957 -0.0249385 -0.0351397 -0.0514173 -0.00348047 -0.0194908 -0.0108196 0.0537391 0.0191203 0.00728352 -0.0151236 0.0201483 0.0458959 -0.0114962 0.0121904 -0.0148084
internal_weight=18881 12671 11770 10745 6210 10288 5666 9236 5127 7219 2666 6781 6559 5794 1052 5251 765 901 589 1025 4506 2597 2461 1809 1181 808 478 373 2017 2330 394 544 1909 1713 779 758 330 344 1986
internal_count=18881 12671 11770 10745 6210 10288 5666 9236 5127 7219 2666 6781 6559 5794 1052 5251 765 901 589 1025 4506 2597 2461 1809 1181 808 478 373 2017 2330 394 544 1909 1713 779 758 330 344 1986
cat_boundaries=0 66 68 134 197 263 329 331 332 397 398
cat_threshold=2147483648 0 0 0 0 0 0 8388608 0 4456448 0 0 0 0 0 144 0 2048 32 0 0 0 0 0 0 128 536870920 4224 64 0 536870912 0 0 0 0 0 0 0 1073741857 0 0 0 17039616 0 0 4096 2147483648 0 0 0 0 0 0 0 131072 268435456 0 0 0 0 256 0 268435456 32768 0 256 2554331144 416 0 0 2 0 0 0 8388608 0 0 0 4 0 0 0 0 0 0 2 0 0 0 2048 2048 0 16777216 0 0 0 2097152 0 16 1048580 32 0 4096 0 16384 0 0 0 0 0 0 2147483680 0 268435456 0 0 16777216 0 16777216 16777216 0 0 0 2147483648 0 0 0 0 10485760 1024 0 16384 0 65536 538968064 4 0 4194304 0 256 0 0 0 2228736 131072 524288 64 0 0 4194824 128 0 524288 0 0 0 0 0 0 142606336 0 1073741824 512 0 0 0 0 0 0 2048 0 0 1024 8388608 0 0 256 0 0 4096 0 0 0 0 0 67108864 536870912 1073741824 0 0 0 128 0 0 0 262145 268435456 0 0 0 0 0 0 0 2147483648 1140850688 64 0 0 0 0 0 0 0 2050 0 5120 0 0 128 16384 0 67129344 0 0 0 0 0 0 8194 0 0 0 0 0 2048 0 0 8388608 64 2147483652 0 0 0 0 0 65536 0 0 0 32768 0 8388736 0 0 0 8192 0 0 0 2048 0 1024 0 0 0 0 0 0 16 83886080 0 0 0 0 0 0 0 0 4194368 0 0 12288 0 128 0 32 0 8388608 0 0 0 192 0 0 4194304 0 0 134217728 0 0 0 0 0 0 0 69632 0 0 1075838977 16 67108864 524288 0 4194304 0 0 0 524288 0 0 0 0 67108864 256 8192 536870912 33554432 2147483648 68157505 21 260 0 0 0 0 134217728 256 1077936128 10240 262144 0 0 0 1536 0 0 0 33554432 16 512 32 0 0 0 20 0 4608 0 0 0 0 134217728 2 0 0 8192 262400 67108864 0 0 8388608 1 0 0 4 512 0 0 0 0 536936448 0 0 1048576 0 0 0 0 0 0 0 0 0 0 0 32 11
is_linear=0
shrinkage=0.200143


Tree=9
num_leaves=40
num_cat=9
split_feature=1 7 7 1 9 7 7 1 4 7 10 4 10 10 1 4 7 6 7 4 6 20 21 21 1 4 9 18 14 21 20 15 21 4 10 10 4 14 18
split_gain=101.645 47.7993 40.9558 31.7269 28.2447 25.6214 19.6989 15.1539 13.9192 12.4907 11.6388 11.465 10.1839 9.83046 9.25761 8.57517 6.87423 6.82518 6.43311 6.3148 6.30568 5.89432 5.46153 5.28611 5.26375 5.95394 6.2987 5.08292 4.68141 5.22061 5.66166 4.38324 4.90489 5.0451 4.54534 4.2901 4.24944 4.05214 4.32904
threshold=172.03500000000003 0 1 103.03500000000001 2 3 4 55.095000000000006 2019.0000000000002 5 250.50000000000003 2019.0000000000002 135.50000000000003 167.50000000000003 75.070000000000007 2465.0000000000005 6 4.3202081605000009 7 2019.0000000000002 4.3489834510000014 157.56000000000003 28747.500000000004 29592.000000000004 323.50000000000006 2019.0000000000002 8 3743.8250000000003 4.8907000000000007 29802.000000000004 95.38000000000001 3.3377797050233489 29331.000000000004 3053.5000000000005 629.50000000000011 193.50000000000003 7735.0000000000009 4.9447750000000008 3435.7050000000004
decision_type=10 9 9 8 9 9 9 10 2 9 10 2 10 8 8 2 9 2 9 2 2 2 2 2 10 2 9 2 2 2 2 2 2 2 10 10 2 2 2
left_child=1 14 -3 7 5 -2 -5 23 17 -8 15 -7 22 -13 -1 -10 -17 -9 -15 20 -14 -20 37 -4 25 -6 35 28 29 30 -18 32 34 -34 -21 -27 -23 38 -11
right_child=4 2 3 6 24 11 9 8 10 12 -12 13 19 18 -16 16 27 -19 21 31 -22 36 -24 -25 -26 26 -28 -29 -30 -31 -32 -33 33 -35 -36 -37 -38 -39 -40
leaf_value=-402.95497965545513 12083.061142662509 -8658.3431011976172 -8682.905438865504 5114.755180182884 34844.384642880104 14712.264072115637 -5255.9044288189643 -5070.2294901150244 -3771.8620709980014 880.57048851018362 -6230.6897816850333 6460.2317200396665 -5579.3013809586446 -5530.0248433531069 12384.371746667388 2254.248998597704 -2354.7769602743383 1839.6238604324683 -473.05221301166506 -3090.251134196792 8728.3303908320122 212.22689777225605 3037.9592062269608 -393.51889880892605 34010.935204488298 8129.0487855738411 16017.562346182011 -4535.3227696559597 -2598.8985824999381 5020.6609985400282 344.62954331191924 282.99738398817129 6645.927615357994 -2352.9500196860504 -6010.2175758498533 -4166.7144156159347 9545.5828453256509 -1638.0830666767035 -2642.4692191742056
leaf_weight=118 610 704 558 551 134 337 408 112 333 1551 788 512 101 223 421 219 784 405 2472 2026 174 203 710 81 291 128 454 151 449 96 565 526 115 220 424 97 202 438 190
leaf_count=118 610 704 558 551 134 337 408 112 333 1551 788 512 101 223 421 219 784 405 2472 2026 174 203 710 81 291 128 454 151 449 96 565 526 115 220 424 97 202 438 190
internal_value=-0.00290964 -0.0125214 -0.015007 -0.0122148 0.0195239 0.0124603 -0.00417257 -0.0254047 -0.020718 -0.00709842 -0.0253889 0.0064949 -0.00492197 0.00321312 0.0453232 -0.0189143 -0.014493 0.00985678 -0.00103274 -0.0120528 0.0170547 0.0015594 0.00391313 -0.0539633 0.0481156 0.0402115 0.0325337 -0.0180596 -0.0153161 -0.00975949 -0.0129743 -0.0144739 -0.0176378 0.00506645 -0.0207429 0.00381984 0.0239216 -0.00105591 0.00327485
internal_weight=18881 13218 12679 11975 5663 4559 7434 4541 3902 6883 3385 3949 6475 3612 539 2597 2264 517 3100 3586 275 2877 2889 639 1104 813 679 2045 1894 1445 1349 3311 2785 335 2450 225 405 2179 1741
internal_count=18881 13218 12679 11975 5663 4559 7434 4541 3902 6883 3385 3949 6475 3612 539 2597 2264 517 3100 3586 275 2877 2889 639 1104 813 679 2045 1894 1445 1349 3311 2785 335 2450 225 405 2179 1741
cat_boundaries=0 66 132 134 191 258 324 388 452 453
cat_threshold=536870912 0 0 4194304 0 0 0 0 0 4194304 8192 524288 2 0 4194304 6816512 268435456 0 524288 0 0 0 0 0 0 33554432 0 1073774720 512 0 0 131072 4194304 0 8192 0 2415919104 0 0 516 0 0 0 0 0 4096 0 0 0 0 0 0 1 1073741824 4 0 0 0 0 0 0 0 268435456 0 0 256 0 0 805306370 0 0 0 2 67108864 1140850688 64 0 16777216 0 0 8192 0 64 1073741826 32768 4096 0 0 0 0 16777216 4096 0 0 0 0 0 16777216 0 0 0 0 8388608 2048 0 0 0 0 64 2147483648 0 0 0 0 1048592 0 16777216 16777216 0 32768 256 0 0 0 0 0 0 4 0 536870912 33554432 1024 71665216 529 0 0 0 0 0 8192 0 67112960 0 4194304 131072 0 1024 0 0 128 33554496 16 0 8192 0 0 0 0 0 8519808 16 0 0 0 134217728 0 2 4096 0 256 0 1 0 0 0 0 262144 0 0 0 3221225472 0 0 0 0 0 0 0 0 0 16777216 0 0 0 0 134217728 0 16 6400 262144 0 262144 32 0 0 0 128 128 0 32 0 0 0 0 18 0 512 0 4096 0 0 16777216 0 0 0 0 256 0 0 4096 0 0 0 50594048 65536 512 0 2147483648 0 0 64 0 0 0 0 0 0 0 512 0 0 256 0 65536 2048 32 0 1024 0 65536 0 0 0 0 0 8192 32800 0 4 0 512 0 0 0 16384 16 0 0 0 2048 1024 0 0 151257089 0 0 2097152 128 16 4 0 0 4096 0 0 0 0 0 0 0 0 0 0 0 1 0 0 0 0 0 512 0 1 0 2097152 0 0 0 134217728 0 0 0 0 2147483648 0 4 2097152 0 0 256 0 0 0 131584 0 0 64 0 0 0 0 0 0 0 0 0 0 0 0 142606336 0 0 0 0 0 0 0 0 2 0 0 0 1024 8388608 0 0 0 0 0 0 0 0 0 0 0 0 0 0 0 0 0 128 0 0 0 1 0 2147483648 0 0 0 0 0 0 0 0 0 0 0 0 0 0 0 0 0 2 0 0 0 0 0 16384 16777216 512 0 0 0 128 0 0 0 2048 0 0 2147483648 0 0 0 0 8388608 8192 2147483648 0 0 0 0 16777216 536870912 0 0 0 0 0 0 0 0 0 0 0 0 4194304 2048 1064965
is_linear=0
shrinkage=0.200143


Tree=10
num_leaves=40
num_cat=10
split_feature=7 1 9 7 7 1 7 1 22 8 7 8 22 1 22 9 14 13 14 1 7 1 22 13 1 3 7 15 21 21 19 22 5 7 1 12 15 18 20
split_gain=69.468 56.8943 46.0397 21.1465 19.8411 17.7512 17.2685 13.8837 9.49613 9.28798 8.56663 6.67383 6.54352 6.1726 7.80568 5.64406 5.63395 5.64532 6.12831 7.75609 5.43097 5.13196 5.23172 5.03394 4.91128 4.82073 4.70352 5.05169 4.48095 4.48092 4.5417 5.24537 4.33965 3.94274 3.70236 3.72726 3.60422 4.15624 3.98996
threshold=0 120.03000000000002 1 2 3 49.500000000000007 4 192.06000000000003 4.5000000000000009 11.500000000000002 5 3.5000000000000004 1.0000000180025095e-35 356.50000000000006 9.5000000000000018 6 4.9028500000000017 51.045100000000012 4.3135000000000003 114.10000000000001 7 314.50000000000006 13.500000000000002 50.799400000000006 112.04500000000002 1.0000000180025095e-35 8 2.7843414145085412 26868.000000000004 29868.000000000004 80430.000000000015 7.5000000000000009 50.774304050000005 9 83.170000000000016 4477.5000000000009 0.3561653395472793 1607.7750000000003 157.56000000000003
decision_type=9 10 9 9 9 8 9 10 10 2 9 2 10 10 10 9 2 2 2 8 9 10 8 2 8 2 9 2 2 2 2 8 2 9 8 2 2 2 2
left_child=11 4 3 -3 -2 -6 -7 10 12 23 -5 -1 26 14 -4 -11 17 18 19 -17 -12 25 -23 -10 -18 36 -8 33 -19 30 -22 -32 -33 -28 35 -35 -9 -38 -39
right_child=1 2 13 7 5 6 8 21 9 15 20 -13 -14 -15 -16 16 24 28 -20 -21 29 22 -24 -25 -26 -27 27 -29 -30 -31 31 32 -34 34 -36 -37 37 38 -40
leaf_value=3496.2830843958109 -6977.1755057950468 -6356.1425619179436 12603.543497569181 -3545.0806803352239 -7910.2921185370296 2530.9616165299708 -1785.4261893694179 -4986.3039155821625 -9753.9847398439215 3040.8969841977446 1628.9382138821798 17245.019267921492 1874.7231337631079 30695.213465036875 2973.687006859926 -6329.1360244471098 -5606.4130711554881 -2654.5144160630234 -223.79452353176967 -2493.7526346041172 -1877.7926124230446 22409.893552686546 6592.5873660609859 -3714.6871109785984 -1697.2277495302353 5393.8279134346512 2713.7175945506124 -2527.860800183249 843.34522413892796 8106.7830180900273 5151.9545476164221 -5240.8620894033238 249.66776625409025 -289.40256470838654 76.345761878468934 -2790.8761968050781 21048.171518519066 179.52629869498583 6190.8794196535409
leaf_weight=194 428 509 940 446 449 449 220 135 206 263 341 718 445 176 764 470 453 564 327 291 1845 268 330 772 272 268 131 480 802 126 171 186 1125 160 1142 137 87 1553 238
leaf_count=194 428 509 940 446 449 449 220 135 206 263 341 718 445 176 764 470 453 564 327 291 1845 268 330 772 272 268 131 480 802 126 171 186 1125 160 1142 137 87 1553 238
internal_value=-0.00259165 -0.00533758 0.0052831 -0.00165066 -0.0172782 -0.0149663 -0.0126924 0.00119303 -0.0150826 -0.0208257 -0.00608813 0.0509694 -0.00578516 0.0332375 0.0297024 -0.0159287 -0.0182274 -0.0136974 -0.0244485 -0.0342863 -0.00294577 0.0119191 0.0284113 -0.0380336 -0.0337809 0.00758722 -0.0101359 -0.00699264 -0.00512518 -0.0053448 -0.00676609 0.00148476 -0.00282261 -0.00152899 -0.00462469 -0.0245322 0.00422393 0.00649821 0.00441217
internal_weight=18881 17969 9508 7628 8461 8033 7584 7119 7135 4420 4240 912 2715 1880 1704 3442 3179 2454 1088 761 3794 2879 598 978 725 2281 2270 2050 1366 3453 3327 1482 1311 1570 1439 297 2013 1878 1791
internal_count=18881 17969 9508 7628 8461 8033 7584 7119 7135 4420 4240 912 2715 1880 1704 3442 3179 2454 1088 761 3794 2879 598 978 725 2281 2270 2050 1366 3453 3327 1482 1311 1570 1439 297 2013 1878 1791
cat_boundaries=0 66 68 134 200 263 328 330 395 461 524
cat_threshold=536870912 0 0 4194304 0 128 0 32 0 0 0 0 2 0 268435456 2151678208 0 0 0 0 0 0 0 0 0 128 84 3221225600 0 0 0 33554448 8192 0 0 0 0 524288 1073741825 0 0 0 0 0 0 4096 2147483648 0 0 1024 0 4096 32768 0 131072 0 0 0 33554432 0 0 0 301989888 0 0 256 209044544 529 0 64 0 0 0 0 16 0 32 33554432 256 0 0 0 0 0 0 2 16777216 0 0 2048 1024 0 16777216 0 0 0 0 0 0 536870912 4194336 2048 4096 0 0 0 0 8 0 0 0 2147487744 0 0 1 0 83886096 0 0 0 16 0 0 0 0 512 16384 0 512 0 8209 0 0 1024 0 0 0 0 0 0 0 2147487744 67108864 64 33554436 0 0 0 0 0 0 1073743872 32768 5120 0 0 0 0 0 4097 0 0 0 0 16 0 0 0 0 0 0 0 0 0 0 8388608 8256 2147483648 0 0 0 0 0 65536 16777216 0 0 0 0 8388608 0 0 0 8192 0 4 0 2048 0 1024 2097152 4 0 0 0 256 0 256 16384 0 139776 524288 0 0 4194304 520 128 0 524288 0 16 0 0 1073741824 0 8388608 0 0 8704 0 0 0 0 8 0 2048 0 0 0 0 64 0 0 0 0 0 0 0 67108864 0 0 0 536871936 1073741824 0 0 0 0 0 0 67108864 1 8192 0 0 805306368 0 0 0 0 40960 0 0 0 0 0 0 16384 0 268435456 0 0 4096 0 0 0 1073741860 0 75497537 0 0 0 0 0 0 0 0 2 0 0 0 0 0 0 8388608 262144 0 0 0 2097152 0 0 0 0 0 512 2147483648 524288 0 2097152 8 0 0 0 4 0 536870912 33554432 2152071680 130 0 0 0 0 134217728 0 0 4096 0 0 0 0 1024 0 0 0 0 16 0 0 0 0 0 0 0 86528 0 0 0 128 0 2 2 0 0 8448 67108864 0 0 8388608 1 16 0 0 0 0 1073741824 0 0 0 0 1 0 0 0 0 0 0 0 8192 0 0 0 2048 4096 8388608 0 0 67108864 0 0 0 0 0 0 1073741824 0 1024 0 0 16 16384 0 0 0 0 0 128 268435456 0 0 0 0 0 0 0 4 0 0 0 0 0 1048576 655360 8388608 0 0 0 0 0 0 0 0 131072 0 0 0 0 0 0 0 0 0 0 0 0 0 0 0 0 16384 0 0 0 0 0 0 0 0 262144 4 0 0 0 0 0 0 4 0 0 0 0 0 0 0 0 67108864 0 0 0 0 0 0 0 0 0 0 0 0 0 0 0 0 33554432 0 0 0 0 0 0 0 0 0 0 0 0 0 0 136 0 0 0 0 65536
is_linear=0
shrinkage=0.200143


Tree=11
num_leaves=40
num_cat=4
split_feature=9 9 13 4 10 13 9 10 21 17 14 21 14 4 22 4 19 14 2 10 16 2 2 14 5 6 2 20 5 10 9 19 19 21 10 5 12 17 4
split_gain=35.3007 24.0271 24.7971 20.8233 15.4542 14.346 16.2213 12.554 11.7112 13.368 10.4694 9.53024 9.01838 8.3468 7.12312 6.94124 9.39648 6.04599 5.50881 5.44738 4.89243 4.35153 4.29871 5.15542 4.37235 4.03925 4.04123 3.93603 4.82594 3.81505 3.72868 5.1088 3.71081 4.83425 4.80517 3.53499 3.24791 3.1809 2.99671
threshold=0 1 50.799400000000006 2019.0000000000002 84.500000000000014 51.335700000000003 2 674.50000000000011 23953.500000000004 1237986.0000000002 2.8454156250000002 30176.500000000004 3.2253500000000002 1075.0000000000002 12.500000000000002 2175.0000000000005 67069.500000000015 4.8308291666666685 3.5000000000000004 260.50000000000006 0.75750000000000017 2.5000000000000004 1.5000000000000002 3.8024250000000004 50.93866919500001 3.8808536500000002 1.5000000000000002 102.48500000000001 51.005459550000005 212.50000000000003 3 117005.50000000001 80430.000000000015 29411.000000000004 167.50000000000003 51.056817075000005 3940.5000000000005 1009568.0000000001 9880.5000000000018
decision_type=9 9 2 2 10 2 9 10 2 2 2 2 2 2 10 2 2 2 2 8 2 2 2 2 2 2 2 2 2 8 9 2 2 2 10 2 2 2 2
left_child=19 35 11 8 17 6 10 12 13 -10 -6 14 -8 -4 18 -12 -17 20 25 -1 -5 37 -18 -24 -25 -3 -27 36 -29 -15 31 -22 33 -14 -34 -2 -19 -16 -32
right_child=1 2 3 4 5 -7 7 -9 9 -11 15 -13 32 29 21 16 22 27 -20 -21 30 -23 23 24 -26 26 -28 28 -30 -31 38 -33 34 -35 -36 -37 -38 -39 -40
leaf_value=18900.06918453722 -5755.1334068512751 -4314.6205598966253 2428.5832493203811 12236.172953804902 4494.4581866912649 40306.110641681189 -3301.3720310026761 -4493.1833708129352 2146.0396017633461 12246.989797577131 -6148.8254741974351 7059.8085973775524 -990.91690368564525 -5862.7107227767638 -5347.771177540184 -5423.7940623907743 -3493.2256085286026 487.45450850397458 1494.4327665872054 6357.9452306390085 1191.2705575962925 -3895.4492904190915 832.99250696902538 860.28423433120736 -3678.9929766749256 -3208.7322284927504 -524.66632118380051 5437.9154155506712 -958.27239898032872 -1940.4533935139366 567.67017503818272 6306.3179818375229 4281.5143350910294 4909.6138326359887 1139.1469336068737 -10940.272202467804 -1295.6271978960597 -8201.9487706905547 -3477.3409571896395
leaf_weight=515 268 522 304 117 209 133 688 797 383 498 260 123 1436 90 113 763 285 291 502 675 1190 797 542 152 385 158 967 127 135 121 1476 435 268 240 1650 204 637 343 82
leaf_count=515 268 522 304 117 209 133 688 797 383 498 260 123 1436 90 113 763 285 291 502 675 1190 797 542 152 385 158 967 127 135 121 1476 435 268 240 1650 204 637 343 82
internal_value=-0.00221006 -0.00446036 -0.00322347 0.000628425 -0.00200163 -0.00738158 -0.00851336 -0.00190714 0.0237859 0.0377915 -0.0213442 -0.0181934 0.00238333 -0.00019402 -0.0201744 -0.0251878 -0.0213991 0.00735364 -0.0131735 0.031002 0.0117632 -0.0321658 -0.0114386 -0.00565333 -0.0195387 -0.0187659 -0.0120003 -0.00487424 0.016756 -0.0307141 0.0102781 0.0169459 0.00640274 -0.000477446 0.0124126 -0.0485039 -0.01099 -0.0477595 0.00318947
internal_weight=18881 17691 17219 13694 12298 7808 7675 5079 1396 881 2596 3525 4282 515 3402 2387 2127 4490 2149 1190 3300 1253 1364 1079 537 1647 1125 1190 262 211 3183 1625 3594 1676 1918 472 928 456 1558
internal_count=18881 17691 17219 13694 12298 7808 7675 5079 1396 881 2596 3525 4282 515 3402 2387 2127 4490 2149 1190 3300 1253 1364 1079 537 1647 1125 1190 262 211 3183 1625 3594 1676 1918 472 928 456 1558
cat_boundaries=0 2 4 5 7
cat_threshold=2420113416 416 2048 77 2113604 67256320 512
is_linear=0
shrinkage=0.200143


Tree=12
num_leaves=40
num_cat=4
split_feature=1 9 1 22 8 1 4 5 4 22 8 11 1 20 4 9 19 21 8 21 5 20 20 1 22 12 5 12 11 5 15 8 19 4 5 18 1 12 5
split_gain=45.1733 20.3627 16.1756 10.0023 11.3509 9.41951 8.31177 6.13748 6.07569 5.88576 5.72556 5.67648 5.30953 5.09775 6.60372 4.76754 4.76245 5.04859 4.8568 4.68781 4.53232 4.37973 4.37412 4.07743 4.03803 3.9894 3.84242 3.68373 3.66246 3.56866 3.7365 3.41087 3.32191 5.59344 3.9126 3.47285 3.26165 3.39172 3.24256
threshold=136.01500000000001 0 67.050000000000011 9.5000000000000018 15.500000000000002 194.73000000000005 2019.0000000000002 51.338734866666677 1327.5000000000002 10.500000000000002 6.5000000000000009 1 41.300000000000004 157.56000000000003 3525.0000000000005 2 67069.500000000015 29411.000000000004 23.500000000000004 25494.500000000004 50.444822000000009 136.22000000000003 6.3500000000000005 416.14000000000004 4.5000000000000009 6411.0000000000009 51.204342100000005 4676.5000000000009 3 51.031673450000007 3.2494178260355904 11.500000000000002 109075.50000000001 3210.5000000000005 51.098954800000008 3101.8200000000006 118.01500000000001 3755.5000000000005 50.650687150000003
decision_type=10 9 8 10 2 10 2 2 2 10 2 1 10 2 2 9 2 2 2 2 2 2 2 10 8 2 2 2 1 2 2 2 2 2 2 2 8 2 2
left_child=2 5 11 7 20 9 -7 10 -3 -2 -4 -1 -13 14 22 36 17 18 31 -18 -5 -21 -12 24 -10 -15 -26 -16 -11 30 -30 -8 33 -22 -35 -36 37 -6 -38
right_child=1 8 3 4 15 6 16 -9 23 28 13 12 -14 25 27 -17 19 -19 -20 21 32 -23 -24 -25 26 -27 -28 -29 29 -31 -32 -33 -34 34 35 -37 38 -39 -40
leaf_value=-7108.3208531761002 439.46502449221748 31810.12721479114 1123.0571144797327 -10578.697031047846 188.73068103109802 13469.860601503502 2274.845138959935 10920.342940113796 17886.612860120007 189.94555890448152 -2881.866732432085 -6615.3487343826455 -2005.3262990936103 296.43690311469925 -1241.4214674389877 1505.0960045719203 -3630.485944844841 10526.973025001365 2331.1221081271428 3012.1168669760609 -1130.4892855095325 10877.063358679714 614.80663146353106 29516.292756201488 3493.2656549847584 2138.0156024020812 17315.801647407861 -3382.6603684755037 -4062.2759761722264 -56.052379463485401 648.27390587251193 -4803.0238230593768 -1329.9861631467322 -6036.9566040410309 -7022.2784669531429 852.17765197765323 -5894.4093626878175 -3340.6421371745091 409.31328497864655
leaf_weight=139 1964 102 779 93 206 321 154 88 82 749 118 292 897 696 1643 415 244 158 686 865 310 346 974 112 1033 112 223 495 782 354 150 518 440 608 84 117 94 625 813
leaf_count=139 1964 102 779 93 206 321 154 88 82 749 118 292 897 696 1643 415 244 158 686 865 310 346 974 112 1033 112 223 495 782 354 150 518 440 608 84 117 94 625 813
internal_value=-0.00247505 0.00795477 -0.0116631 -0.00852427 -0.0162238 0.00349479 0.0114271 -0.00254983 0.0286873 -0.00302733 -0.00351035 -0.032233 -0.0269408 -0.0065413 -0.0100976 -0.00664423 0.00811541 0.000263905 -0.0036824 0.0162916 -0.0286994 0.0213888 0.0025641 0.0255217 0.0224245 0.00767134 0.0195878 -0.0165633 -0.0105686 -0.0169772 -0.0236023 -0.0157668 -0.0261121 -0.031904 -0.0406573 -0.0163661 -0.0112158 -0.0203324 -0.00297641
internal_weight=18881 8843 10038 8710 3805 7291 3292 4905 1552 3999 4817 1328 1189 4038 3230 2153 2971 1516 1358 1455 1652 1211 1092 1450 1338 808 1256 2138 2035 1286 932 672 1559 1119 809 201 1738 831 907
internal_count=18881 8843 10038 8710 3805 7291 3292 4905 1552 3999 4817 1328 1189 4038 3230 2153 2971 1516 1358 1455 1652 1211 1092 1450 1338 808 1256 2138 2035 1286 932 672 1559 1119 809 201 1738 831 907
cat_boundaries=0 2 3 5 6
cat_threshold=203800641 561 10 16388 577 45
is_linear=0
shrinkage=0.200143


Tree=13
num_leaves=40
num_cat=0
split_feature=1 1 22 8 4 5 1 21 22 19 6 1 21 1 14 4 6 15 4 5 6 6 22 15 5 22 19 4 4 15 1 1 19 15 15 4 4 5 5
split_gain=29.7377 15.0646 10.9317 8.04292 8.02835 7.35302 6.8579 6.6644 5.98265 5.96148 6.24829 5.18994 4.2345 7.0482 4.08992 5.90313 4.77386 3.97093 3.82687 4.77552 4.41099 4.07568 3.69653 3.40445 3.56616 3.86515 3.32967 4.78423 4.12938 3.52224 3.22183 3.03412 5.1484 3.60336 3.41684 3.02567 7.14508 4.01168 3.03226
threshold=179.25000000000003 71.770000000000024 9.5000000000000018 15.500000000000002 2019.0000000000002 50.444822000000009 337.50000000000006 28747.500000000004 11.500000000000002 109075.50000000001 2.9210250000000006 212.23000000000005 29802.000000000004 41.300000000000004 4.7291250000000007 8305.5000000000018 5.3077946295000009 2.8836328544710041 2019.0000000000002 50.989670000000011 4.8462207500000014 4.1075490000000014 16.500000000000004 1.1797758834871257 51.04014895000001 15.500000000000002 109075.50000000001 8752.5000000000018 2175.0000000000005 2.4423175396714325 71.770000000000024 128.03000000000003 25786.000000000004 1.1291950223313001 1.2438325497592855 2019.0000000000002 2175.0000000000005 51.202451200000006 50.464755000000004
decision_type=10 8 10 2 2 2 10 2 10 2 2 10 2 10 2 2 2 2 2 2 2 2 8 2 2 10 2 2 2 2 10 10 2 2 2 2 2 2 2
left_child=1 12 7 5 11 -4 8 9 -6 10 17 -2 13 -1 15 -9 -16 -3 -15 20 -20 -21 -8 -10 25 -25 27 -7 -28 -29 -5 32 33 -12 -34 37 -37 -11 -38
right_child=4 2 3 30 6 26 22 14 23 35 31 -13 -14 18 16 -17 -18 -19 19 21 -22 -23 -24 24 -26 -27 28 29 -30 -31 -32 -33 34 -35 -36 36 38 -39 -40
leaf_value=-7030.4276638529836 2372.8704325431495 314.41760707066351 -9526.5365272569306 2335.4655976816866 2414.2583291690971 -2243.0305743077324 15334.466637724512 8332.695795608448 -3008.0456736314236 1238.6367562297139 -1029.607526791074 18060.843545083357 1260.6958867562544 171.6158288889483 -777.25526081494149 140.0410464498035 4674.8834107808771 14371.811857594612 -6349.8243305832202 -234.25221608461501 -1470.7509670369311 -2743.3045359527919 -4498.2176488850018 187.89890538318193 3855.8083910828677 -6216.5339187487707 -3043.5298125652175 -5877.6713644037609 1017.075155520468 -1826.0367088164583 -1035.1149862652519 -137.84342075553275 54.807838399389645 -4987.1684069630946 -1561.9428682597754 -6243.5072115946841 -998.58928843336366 18397.952105217148 1554.3586765487626
leaf_weight=258 196 206 115 603 2302 1002 535 472 520 117 134 313 125 212 513 367 197 118 176 407 177 266 146 581 455 163 161 305 339 101 2939 1136 701 151 1125 143 121 82 901
leaf_count=258 196 206 115 603 2302 1002 535 472 520 117 134 313 125 212 513 367 197 118 176 407 177 266 146 581 455 163 161 305 339 101 2939 1136 701 151 1125 143 121 82 901
internal_value=-0.00197686 -0.00688089 -0.00444309 -0.0109497 0.010887 -0.0210153 0.00829889 0.00114195 0.00515065 -0.00245324 -0.00675216 0.0347457 -0.0249904 -0.0279466 0.0125914 0.0220453 0.00140791 0.0197197 -0.0216496 -0.0267044 -0.045541 -0.016783 0.0268607 -0.00378225 0.0020852 -0.00644946 -0.0180349 -0.023015 -0.00399662 -0.0413295 -0.00519737 -0.00939774 -0.0138845 -0.0388688 -0.00997 0.00879891 0.00489292 0.0315572 0.0107627
internal_weight=18881 13670 12049 5565 5211 2023 4702 6484 4021 4935 3571 509 1621 1496 1549 839 710 324 1238 1026 353 673 681 1719 1199 744 1908 1408 500 406 3542 3247 2111 285 1826 1364 1165 199 1022
internal_count=18881 13670 12049 5565 5211 2023 4702 6484 4021 4935 3571 509 1621 1496 1549 839 710 324 1238 1026 353 673 681 1719 1199 744 1908 1408 500 406 3542 3247 2111 285 1826 1364 1165 199 1022
is_linear=0
shrinkage=0.200143


Tree=14
num_leaves=40
num_cat=10
split_feature=7 7 7 7 1 7 1 7 7 10 21 7 7 4 7 10 1 2 12 1 6 19 1 0 1 1 1 1 10 4 14 19 6 1 1 15 12 21 6
split_gain=39.6423 33.533 29.2562 23.1011 16.643 19.9603 13.0053 17.4226 9.83876 7.81654 6.73306 5.81212 5.69482 5.23125 5.45434 4.95746 4.0384 3.65792 3.49504 3.5159 3.76617 3.92328 3.19882 2.68466 3.17824 2.56666 2.53008 2.44131 2.53354 2.42252 2.4288 2.23994 2.95435 2.19376 2.16368 2.91026 1.93326 1.892 2.0693
threshold=0 1 2 3 259.50000000000006 4 88.15000000000002 5 6 469.50000000000006 21668.000000000004 7 8 1395.0000000000002 9 197.50000000000003 139.05000000000004 4.5000000000000009 4807.5000000000009 39.170000000000009 2.8881533830000001 70570.000000000015 172.03500000000003 1.0000000180025095e-35 119.10000000000001 90.950000000000017 118.01500000000001 450.50000000000006 554.50000000000011 3129.0000000000005 4.5726450000000014 101187.00000000001 4.1833750000000007 128.03000000000003 140.00500000000002 1.6749887837399309 4325.5000000000009 27214.500000000004 4.8214746500000008
decision_type=9 9 9 9 10 9 8 9 9 10 2 9 9 2 9 8 8 2 2 10 2 2 10 2 10 10 10 10 8 2 2 2 2 8 10 2 2 2 2
left_child=-1 25 31 16 5 22 9 23 -9 12 -10 34 -7 26 -15 36 -4 29 19 -14 -21 -22 -5 -8 -25 -2 -13 28 -19 30 -17 32 -3 -33 35 -12 -6 -20 -39
right_child=1 2 3 4 15 6 7 8 10 -11 11 13 18 14 -16 17 -18 27 37 20 21 -23 -24 24 -26 -27 -28 -29 -30 -31 -32 33 -34 -35 -36 -37 -38 38 -40
leaf_value=-7513.2912072387317 5285.0362277729982 2298.2832968115995 -5186.4818637078051 1373.8551033679787 13240.791464009568 -3860.2518625222774 1401.8115031772895 -4104.6512812127467 -6099.521513325888 -7072.9330492425943 -2491.6936293487393 69.796963582073175 -5090.7310451143694 1726.1921977765185 -515.98826879435865 16157.582992304993 -4498.2578610466007 6230.0065354657072 -4023.9845256390995 3782.2867450725303 -1638.6569589995827 -35.20598843389984 9224.1560110112896 2346.9715183735602 26191.052605449338 14775.304587365339 10155.594082635736 27856.110231199811 -4189.9467135038949 -1838.1047445855093 -1611.2887481385678 2433.1598166796039 10440.503550542575 20391.316910743833 -1435.2534205541983 -6457.4527836049037 20782.276039149376 -734.35699482163932 -2535.5360470747819
leaf_weight=435 183 384 251 555 247 235 285 447 187 208 138 129 135 628 8987 85 294 310 187 149 565 957 109 182 81 269 208 91 106 487 84 102 217 152 297 125 128 178 84
leaf_count=435 183 384 251 555 247 235 285 447 187 208 138 129 135 628 8987 85 294 310 187 149 565 957 109 182 81 269 208 91 106 487 84 102 217 152 297 125 128 178 84
internal_value=-0.00186026 -0.000433755 -0.00180081 -0.00361195 -0.00226603 -0.00429349 -0.00586417 -0.00297781 -0.00470005 -0.0183918 -0.0034666 -0.00279859 -0.0152672 -0.00166739 -0.0025289 0.0175589 -0.0437536 0.0110925 -0.0119691 -0.00808645 -0.00556691 -0.00854312 0.0293639 0.0315197 0.0466631 0.0527625 0.0228122 0.0238462 0.0172876 0.00121893 0.0218085 0.0340977 0.0277708 0.0502753 -0.0224415 -0.0360406 0.0375487 -0.0278112 -0.016756
internal_weight=18881 18446 17994 17139 16594 15056 14392 11694 11146 2698 10699 10512 2490 9952 9615 1538 545 1163 2255 1806 1671 1522 664 548 263 452 337 507 416 656 169 855 601 254 560 263 375 449 262
internal_count=18881 18446 17994 17139 16594 15056 14392 11694 11146 2698 10699 10512 2490 9952 9615 1538 545 1163 2255 1806 1671 1522 664 548 263 452 337 507 416 656 169 855 601 254 560 263 375 449 262
cat_boundaries=0 66 133 199 262 325 388 450 515 578 643
cat_threshold=0 128 2 0 0 0 0 0 0 320 12 0 131072 0 536870912 0 0 0 0 0 0 0 65536 0 0 32768 268435456 0 0 0 16 1081344 32 0 0 0 0 0 2 0 0 0 1073741824 2147483648 0 268435456 0 0 0 0 16777216 0 0 0 256 2147483648 0 0 0 2147483648 2097152 1024 0 0 0 65536 536870912 0 0 4194304 0 128 128 32 0 4194304 8192 0 0 0 0 8388608 0 0 0 0 0 0 0 0 0 0 64 1073741952 8388610 4194304 4194304 0 0 8 0 33554432 0 536870912 8192 0 0 0 0 2 0 0 0 0 128 0 0 20480 32768 1073741824 0 0 0 0 0 0 0 0 0 134217728 0 256 1024 0 0 0 0 0 0 0 0 0 0 131072 526336 64 0 4194304 272629760 0 65536 0 0 0 0 0 0 0 128 536870968 65536 96 268435456 0 0 0 16384 33554432 0 0 0 8388609 0 0 0 64 0 0 4096 2147483648 0 0 1024 0 0 4 0 131072 0 128 0 33554432 0 0 0 0 0 0 16384 0 524352 0 0 0 0 0 0 67141664 0 16384 285212672 0 0 0 4096 0 129 32768 67112960 0 0 0 0 0 524288 0 0 4 17301504 0 4 8192 2048 0 2147483648 8404992 0 0 0 0 0 0 0 0 0 0 0 131072 65536 0 16777216 0 0 524288 8388608 0 0 0 0 0 65536 16 0 0 0 0 524288 0 131072 0 1073742336 0 0 128 0 0 0 0 8388608 4 524288 4194336 0 0 0 2 128 0 0 0 536870912 0 0 33685504 0 0 8397824 8192 67108864 1048576 0 8388608 0 0 33554688 0 0 0 8388608 0 0 0 8389120 0 1048577 0 0 0 0 0 0 0 0 0 65536 0 0 0 0 0 0 0 0 0 512 1073741824 0 0 0 0 512 0 0 32 0 0 0 128 32 0 2 4194304 134221824 0 0 16777216 0 0 131072 0 256 268435456 3221225472 527360 0 0 0 16777216 335544320 0 0 0 0 524288 512 0 603979776 0 0 0 0 0 128 0 0 0 0 268435456 0 8192 536870912 0 262144 0 1073741824 67108864 0 0 33554432 0 0 0 0 16 0 256 0 0 0 0 0 16908288 0 0 262144 0 2097152 0 0 512 32770 0 4096 0 0 2 131072 0 0 0 0 0 0 64 0 0 51380736 8 0 0 0 4096 1 0 0 0 0 0 67108864 262144 2147483649 0 0 2048 0 16 32 0 0 33554432 0 131072 2 0 0 0 4194368 0 0 0 4 2048 3072 2048 1024 4202496 0 0 0 0 0 16777216 0 4096 0 0 0 2049 0 0 0 0 67108864 0 0 0 0 0 0 0 0 0 0 0 512 16 0 8 0 64 0 0 0 536870912 33554432 0 0 2097152 0 0 0 0 0 0 0 0 0 0 0 0 512 33554432 0 32 0 16 0 0 16384 0 4096 0 0 0 0 0 0 1073741824 0 0 0 0 0 2048 0 0 0 17039360 65536 0 0 0 0 0 0 0 0 0 1048576 0 0 0 128 0 0 0 0 268435456 0 4 0 1048576 134217728 0 4194304 0 0 0 524288 32 0 0 0 2147491840 128 512 128 0 0 0 0 0 0 33559040 0 0 131072 0 0 0 0 0 0 65536 0 0 32 512 0 8388608 0 0 0 16777216 0 0 0 64 0 512 0 2147483648 0 0 1 0 0 0 256 16 33554432 0 32
is_linear=0
shrinkage=0.200143


Tree=15
num_leaves=40
num_cat=15
split_feature=7 7 7 8 7 7 7 8 9 7 10 7 8 7 7 8 7 5 8 15 7 11 8 2 5 5 15 9 14 10 10 21 10 14 2 8 21 5 8
split_gain=36.2259 25.1917 21.2447 15.0007 17.9652 15.4944 8.78688 8.39354 7.53303 8.6684 7.24677 11.4876 8.15411 7.77893 5.43515 5.40701 4.7792 4.61271 4.59829 4.44693 4.35649 4.15886 4.46163 3.68593 3.31208 3.19498 3.05215 2.83282 2.9105 2.61999 2.54309 2.5698 2.52856 2.36126 2.06839 2.04997 2.2691 2.01914 2.00731
threshold=0 1 2 26.500000000000004 3 4 5 4.5000000000000009 6 7 133.50000000000003 8 15.500000000000002 9 10 19.500000000000004 11 50.444822000000009 22.500000000000004 1.0750690339812043 12 13 40.500000000000007 1.5000000000000002 50.821350955000007 50.932205000000003 2.0658151762087775 14 4.7155000000000014 141.50000000000003 145.50000000000003 29868.000000000004 466.50000000000006 5.3095500000000007 3.5000000000000004 31.500000000000004 25494.500000000004 50.873943599500009 19.500000000000004
decision_type=9 9 9 2 9 9 9 2 9 9 10 9 2 9 9 2 9 2 2 2 9 1 2 2 2 2 2 9 2 8 8 2 8 2 2 2 2 2 2
left_child=15 18 7 4 19 -6 -7 25 -8 -10 13 38 17 23 -15 -1 -5 -13 26 -4 -14 22 33 -11 -16 -3 -2 29 37 -9 34 35 -17 -18 -23 -32 -37 -29 -12
right_child=1 2 3 16 5 6 8 27 9 10 11 12 20 14 24 32 21 -19 -20 -21 -22 30 -24 -25 -26 -27 -28 28 -30 -31 31 -33 -34 -35 -36 36 -38 -39 -40
leaf_value=-7675.2226178546971 12908.793762247318 -6139.8427808590468 6261.2120360675799 -2747.1587978467564 -3713.1682240816303 -3496.6137093236989 -4654.8214881867989 -522.2378391730266 -2768.067927379258 -188.85340738333511 -4613.8679716165034 -8584.3437672540804 2183.6370570833747 -1302.8004349016171 -600.60816517673345 -2911.5938203189212 -3924.9391083385972 -1460.4923398552139 24283.199313965826 1350.9668599138472 -81.764818582991651 2855.669332694124 9880.9309962966545 2219.3494080225296 558.37042771996175 2610.9687348199491 2745.0159245132027 13268.336654106422 2954.5416144464211 3362.6689143672374 1457.7730158855279 18347.34859183184 -8991.1131376116628 682.89172727594428 16297.519424973092 -1504.577849237839 6245.8852171705121 17461.576683014893 -2794.5539618256066
leaf_weight=288 241 81 169 223 547 548 398 97 674 134 382 91 210 556 926 167 350 2174 90 526 2970 215 154 453 2899 103 97 107 105 208 1050 90 89 395 102 87 459 257 169
leaf_count=288 241 81 169 223 547 548 398 97 674 134 382 91 210 556 926 167 350 2174 90 526 2970 215 154 453 2899 103 97 107 105 208 1050 90 89 395 102 87 459 257 169
internal_value=-0.00192386 -0.000398152 -0.00155805 -0.0032036 -0.00603608 -0.00769852 -0.00624514 0.0272702 -0.00510044 -0.00415791 -0.0027902 -0.00747601 -0.0046406 0.00285989 -6.83582e-05 -0.0523103 0.00931633 -0.0138241 0.0469819 0.0250965 0.00188768 0.0114749 0.000109995 0.0242737 0.00263498 -0.0108314 0.0372188 0.0366817 0.0465128 0.019331 0.0165479 0.0135265 -0.0319568 -0.00630663 0.0330653 0.0116568 0.0215963 0.0559641 -0.0347359
internal_weight=18881 18337 17909 16951 13826 13131 12584 958 12036 11638 10964 5996 5445 4968 4381 544 3125 2265 428 695 3180 2902 899 587 3825 184 338 774 469 305 2003 1686 256 745 317 1596 546 364 551
internal_count=18881 18337 17909 16951 13826 13131 12584 958 12036 11638 10964 5996 5445 4968 4381 544 3125 2265 428 695 3180 2902 899 587 3825 184 338 774 469 305 2003 1686 256 745 317 1596 546 364 551
cat_boundaries=0 66 132 196 259 324 390 392 457 521 587 653 716 776 777 779
cat_threshold=0 524352 0 0 0 0 0 0 32 64 4 268435456 131072 0 536870912 0 0 128 0 0 0 0 65536 0 0 524288 268435456 0 0 17301504 16 4 32 2048 0 0 8404992 0 0 0 0 0 1073741824 2147483648 0 0 0 0 0 0 16777216 16777216 0 0 256 2147483648 0 0 0 2147483648 2097152 66560 16 0 0 65536 536870912 0 0 4194304 0 128 128 32 0 4194304 0 526336 0 0 0 268435456 0 0 0 0 0 0 0 0 0 0 536871024 1073807488 0 268435456 0 0 0 0 0 0 0 0 8396800 0 0 0 0 2 0 4096 0 0 0 0 0 20480 32768 0 131072 0 0 0 33554432 0 0 0 0 0 0 256 0 0 0 2097152 0 0 0 4194304 0 0 139264 128 0 0 272629760 4194304 256 16777220 524288 64 0 0 0 0 128 2 0 4096 0 0 0 0 0 8 9216 33554432 0 2147483649 0 0 0 0 83886080 0 0 16777216 2147483648 0 0 0 512 0 4 1073741824 0 0 0 0 0 0 0 0 0 134217728 0 0 0 0 524288 0 0 8388608 1024 131072 512 0 64 0 0 0 0 65536 262144 0 0 0 0 2147483648 0 32768 0 0 545260032 0 134217728 33685504 4194304 0 8388608 2304 67108864 536870912 0 0 0 0 33554688 0 512 0 8388608 0 0 0 8388608 0 0 0 0 0 4718720 0 0 0 0 0 268435456 1 0 268435456 0 0 0 8388608 0 0 256 0 0 2 0 0 131328 16384 0 65536 4096 0 0 2048 0 0 0 0 0 0 128 0 0 40960 0 0 0 0 0 0 0 0 8388608 0 65536 0 0 0 16 512 65536 0 1 0 4096 513 524288 0 0 0 131072 0 0 0 536872960 33554432 0 0 2097152 0 0 0 32 0 0 33554432 0 16777216 0 0 0 0 0 2 32800 1024 0 0 2097152 0 32 0 0 0 0 0 0 16809984 0 4096 0 2147483648 4096 0 0 0 0 0 64 0 0 8192 0 0 1179664 536870912 0 0 0 163840 524288 8388608 2097152 0 0 0 0 0 1 0 0 1024 526400 93 0 0 0 0 0 0 0 67108864 32768 0 33570816 131072 0 0 393216 4112 33554432 256 0 2147483648 0 2176 0 32 0 2105345 8388736 0 2097152 0 0 0 0 0 4096 0 0 0 135168 8 0 0 0 4 268437536 0 0 0 0 0 0 4194304 0 0 0 0 0 0 0 0 0 0 0 0 4096 0 0 0 0 134217728 0 0 33562880 1073741824 0 0 0 512 0 0 8 4194308 0 16777216 0 0 0 1024 4 16777216 67108864 4194304 0 0 0 0 512 1073741824 0 2 0 4 0 0 0 0 0 0 16 0 0 65536 0 67108864 8 0 0 512 0 0 0 0 0 0 1073741824 8390656 262148 0 32768 0 4 0 0 0 8448 0 12288 1073758208 2097152 0 0 512 0 0 8704 4194436 0 0 0 0 0 0 16777216 0 67108864 0 0 0 0 0 0 1073741824 131072 524288 0 0 0 3072 0 0 0 0 0 0 0 0 0 67108868 136 0 0 0 0 0 0 0 0 0 0 0 5 33619968 2147483648 0 16384 2097152 65536 0 67108864 64 0 0 2048 0 0 0 32 0 0 0 0 64 2048 0 0 0 0 0 268435456 0 16793600 0 0 0 0 0 2 0 0 0 270336 0 0 0 0 1 1024 262144 0 0 0 0 0 50331648 0 2097152 0 1536 0 0 128 0 8 0 8192 0 0 0 0 4194304 2147483648 0 0 268435456 0 0 0 0 0 0 0 0 0 0 0 16384 0 0 0 0 128 4 0 0 16384 0 4194304 0 0 0 0 134217728 0 0 0 0 0 0 0 0 0 0 0 270336 0 0 268435456 0 0 0 0 0 0 0 0 0 0 0 0 0 0 0 256 4202496 0 0 0 0 0 8208 0 0 0 0 1073741824 0 1024 0 0 8388608 0 0 0 8192 0 0 0 0 0 69632 0 0 4194304 0 0 0 2 0 0 0 0 2048 0 0 0 0 8192 0 0 0 0 0 0 0 0 0 256 0 0 0 0 512 0 8192 586 393220 8
is_linear=0
shrinkage=0.200143


Tree=16
num_leaves=40
num_cat=14
split_feature=7 7 7 7 9 7 7 1 1 7 2 7 1 7 2 9 7 5 8 9 1 1 1 1 8 5 1 17 5 1 11 20 8 1 8 1 5 1 1
split_gain=29.3875 22.4981 14.3707 11.3218 10.582 9.59387 8.77432 7.01932 6.97356 10.4317 8.58827 9.73375 6.9247 6.84232 6.50932 6.44738 6.26892 5.82673 4.97132 4.76133 8.50681 4.75943 4.6669 3.93274 3.61919 3.00043 2.76599 3.66993 2.74014 3.21498 2.67195 2.67165 2.40985 2.31964 2.19714 2.00821 1.94712 1.85391 1.95308
threshold=0 1 2 3 4 5 6 75.070000000000007 99.035000000000011 7 2.5000000000000004 8 135.04500000000004 9 4.5000000000000009 10 11 50.813070000000003 3.5000000000000004 12 39.170000000000009 91.040000000000006 169.05000000000004 248.36500000000004 14.500000000000002 50.827712400000003 122.06000000000002 1237986.0000000002 50.778715750000011 113.05000000000001 13 34.310000000000009 19.500000000000004 173.05000000000004 19.500000000000004 89.050000000000011 50.941263240000005 198.50000000000003 103.03500000000001
decision_type=9 9 9 9 9 9 9 8 10 9 2 9 10 9 2 9 9 2 2 9 10 8 10 8 2 2 10 2 2 10 1 2 2 10 2 10 2 10 8
left_child=21 7 18 -4 23 24 33 -2 13 -10 15 34 30 -8 17 -11 -14 35 36 31 -21 -1 -20 28 -6 -17 27 -9 -5 -30 -13 -19 -23 -7 -12 -15 -3 38 -26
right_child=1 2 3 4 5 6 8 26 9 10 11 12 16 14 -16 25 -18 19 22 20 -22 32 -24 -25 37 -27 -28 -29 29 -31 -32 -33 -34 -35 -36 -37 -38 -39 -40
leaf_value=-6433.0316137170657 -2123.17809413441 -4126.9551767318271 -3896.0493438546787 -4841.2409743544258 -7048.6323453080022 1033.5541649565816 752.62390443957213 15927.252874784141 4160.6469906261027 2322.6040717628039 -3744.6544239288169 -480.06792514197332 2065.2471948009297 -3082.4933717502195 17216.341125726136 -2756.5122134973317 -215.14969167063572 4595.5212985447124 1603.8153341839698 -4674.9166159751021 -544.47025250409956 -6880.5595729473007 13442.26438287945 13074.181196657722 -1673.3259249468274 726.73219661515566 18055.787408136381 2195.6205831165175 -3506.8328208962475 5774.803288459022 -2507.4212882883189 -71.498111268205506 -3984.6528486811544 10053.421103752962 -2724.0068777243614 -718.22316406005302 922.56840341280179 -6028.7278110984435 29.630574739703
leaf_weight=103 92 81 553 99 174 288 584 103 418 1047 242 552 543 604 99 286 4442 100 369 643 2167 213 308 441 117 637 227 135 94 344 677 848 250 141 314 140 112 92 202
leaf_count=103 92 81 553 99 174 288 584 103 418 1047 242 552 543 604 99 286 4442 100 369 643 2167 213 308 441 117 637 227 135 94 344 677 848 250 141 314 140 112 92 202
internal_value=-0.00166947 -0.000267574 -0.0015206 -0.00281878 -0.00185501 -0.00314518 -0.00213915 0.0389513 -0.00299089 0.000327789 -0.00116644 -0.00455221 -0.00225068 -0.00885745 -0.0114354 0.0104602 0.00106378 -0.012579 0.0234051 -0.00937143 -0.0134811 -0.046151 0.0317439 0.0182173 -0.0280505 -0.00182186 0.0496296 0.0343658 0.00688505 0.013684 -0.0157051 0.00292246 -0.0381919 0.025713 -0.0296623 -0.0287538 -0.00464776 -0.0182266 -0.0109528
internal_weight=18881 18315 17758 16888 16335 15357 14772 557 14343 9158 8740 6770 6214 5185 4601 1970 4985 4502 870 3758 2810 566 677 978 585 923 465 238 537 438 1229 948 463 429 556 744 193 411 319
internal_count=18881 18315 17758 16888 16335 15357 14772 557 14343 9158 8740 6770 6214 5185 4601 1970 4985 4502 870 3758 2810 566 677 978 585 923 465 238 537 438 1229 948 463 429 556 744 193 411 319
cat_boundaries=0 66 132 191 255 257 322 379 446 509 570 572 638 640 641
cat_threshold=0 524288 0 0 0 0 0 0 32 320 4 268435456 0 0 536870912 0 0 0 0 1024 0 0 67584 0 0 0 269746176 0 2097152 0 0 0 32768 2048 0 0 8404992 0 0 0 0 0 1073750080 2147483648 0 268435456 0 0 16 0 16777216 16777216 0 0 256 0 0 0 0 131072 0 66560 16 0 0 65536 536870912 0 0 4194304 0 0 128 4194336 0 4194304 139264 2176 0 0 0 0 0 0 524288 512 0 0 0 0 0 0 112 1073741952 32 0 0 0 0 0 0 0 0 0 8192 0 0 0 83886080 0 0 0 0 0 0 0 512 0 32772 1073741824 131072 0 0 0 0 0 0 0 0 134217728 0 256 0 0 0 2097152 0 0 0 8388608 512 0 524800 0 0 0 0 0 8388608 65536 262144 0 0 0 0 2147483680 0 0 8 0 0 268435456 0 33685520 0 8 33554432 2048 0 2621440 1 0 0 0 0 2 512 4096 2147549184 0 0 64 0 512 0 2147483648 0 536870912 0 0 33554432 0 64 2 0 0 0 16 0 0 0 0 16777216 196608 0 0 0 16416 3 32768 0 0 0 0 0 32 0 0 33554432 0 17301632 0 536904708 4128 0 0 0 4096 0 0 0 0 0 0 0 0 64 0 0 1048576 16384 2048 0 0 0 0 0 0 0 0 0 0 262144 8 8 2151678984 384 0 536871040 2097152 2048 0 0 32 67108864 0 0 0 0 2 0 131072 4096 0 0 268501024 0 4 128 0 0 0 524321 0 0 4 0 0 0 0 0 0 0 0 0 0 0 0 0 0 4 0 0 0 0 16777728 0 0 1 0 131072 0 2147483648 0 0 0 2147483648 0 0 1 2684354560 1024 0 0 0 0 0 128 0 256 0 0 0 0 64 0 0 33562624 0 16 0 4194304 0 536870912 0 0 268435584 131072 4 0 8388608 4194304 285212672 0 0 0 532480 33554432 0 2147483648 0 32 0 0 65536 0 0 0 8388608 0 0 1024 0 4096 0 0 4 134217728 16777344 131072 4 0 0 64 0 4194304 0 262144 0 0 32 0 0 0 2147484160 33554433 0 0 64 0 0 0 0 0 2 4194304 4096 0 0 0 0 0 0 0 256 268435456 0 1074266144 0 0 0 33554688 0 0 0 0 0 4 0 0 67108864 0 0 0 0 4194304 0 0 0 2048 256 65536 0 0 16384 1024 0 0 0 0 0 0 1073741824 16777216 0 0 33554432 0 1048576 0 0 131072 4194304 384 0 128 0 0 0 285212674 0 100663296 128 0 0 0 0 0 0 4096 2 0 0 1 0 4 0 0 262144 528384 0 0 0 0 134217728 128 0 0 16778240 0 524288 0 0 0 0 64 512 0 4202496 1 0 0 0 0 256 0 6144 0 131072 1073741824 524800 1536 0 0 0 0 0 0 2147483648 16 0 0 16777216 0 161480704 0 0 8704 0 134217728 0 0 0 2 8192 0 1048577 0 8388608 64 8388608 33554432 0 0 16777216 0 0 0 0 0 0 8192 0 0 0 0 0 512 0 67108864 49668 2 0 0 805306368 0 0 0 0 4096 0 0 0 0 1024 0 0 8388736 64 0 0 8192 0 0 0 0 16779264 151339008 0 0 0 0 0 16777216 2 0 0 270336 0 2048 0 8388624 0 8388608 0 0 0 0 1 0 262144 0 0 0 512 0 0 524288 0 0 0 8192 0 4 0 32768 32 2147483648 425984 512 1366
is_linear=0
shrinkage=0.200143


Tree=17
num_leaves=40
num_cat=3
split_feature=21 20 4 8 4 4 22 8 21 4 13 4 1 3 21 11 19 20 12 13 9 18 22 4 1 21 8 4 20 13 4 15 13 9 13 13 15 15 4
split_gain=9.46552 12.7609 12.66 11.4632 9.0663 12.4532 8.07615 6.93379 6.32734 5.79208 5.42152 8.28148 4.61558 5.5523 4.10127 4.93154 3.80738 4.65317 3.77455 3.6795 3.75628 4.37907 3.60673 3.52027 4.47241 3.44729 3.38707 4.50745 3.05961 3.02667 3.39228 2.89274 2.88779 2.89652 2.88719 3.099 4.68809 3.24297 2.80366
threshold=28018.500000000004 157.56000000000003 1075.0000000000002 25.500000000000004 2009.0000000000002 2175.0000000000005 6.5000000000000009 15.500000000000002 32726.500000000004 2019.0000000000002 51.322600000000001 8255.5000000000018 323.50000000000006 1.0000000180025095e-35 27892.000000000004 0 11209.500000000002 44.790000000000006 4237.5000000000009 51.295083333333345 1 3101.8200000000006 3.5000000000000004 9865.0000000000018 200.24500000000003 27214.500000000004 30.500000000000004 3085.0000000000005 30.425000000000001 50.442850000000007 8431.0000000000018 1.5480653207289268 50.743491666666671 2 51.193725000000008 51.086383333333337 1.7960371710641341 1.9574699247984193 1740.5000000000002
decision_type=2 2 2 2 2 2 10 2 2 2 2 2 10 2 2 1 2 2 2 2 9 2 8 2 10 2 2 2 2 2 2 2 2 9 2 2 2 2 2
left_child=1 2 25 6 -3 9 28 29 10 -6 12 -12 13 19 15 -9 -15 -18 -19 20 21 -2 -22 24 34 -1 32 -28 -4 -8 -31 -5 -24 -34 35 37 -37 -7 -35
right_child=8 4 3 31 5 23 7 14 -10 -11 11 -13 -14 16 -16 -17 17 18 -20 -21 22 -23 26 -25 -26 -27 27 -29 -30 30 -32 -33 33 38 -36 36 -38 -39 -40
leaf_value=1037.2395618036196 1854.3490101600962 11058.796318957022 -3195.4823742431627 -1497.9220001143253 2576.3625537370663 2206.5097054444423 -7073.1071313120092 1731.6801095678652 7583.2395801108032 -3474.6604155308651 -1127.6662150472532 39315.279271731422 11821.201267746419 -3105.1584849456303 -4276.0092626282085 -1706.0944297598351 4548.6291824801247 2009.1381075385812 -141.60401017425443 -3617.3654908949975 3499.4900478686295 15572.952583648224 -3583.1478365890353 -863.52520701166418 10912.522165905028 11071.034565689719 15786.482261788906 149.54966613000346 -426.52307776843213 -2315.4729950074957 -4331.2659232090973 1287.9944082948277 -5014.2484225122271 2806.2816320513402 4969.3668347909661 -1744.3659511537733 1209.9696890763755 -33.266268085878224 -435.49841828500377
leaf_weight=332 292 168 164 671 87 689 153 343 133 477 125 164 343 85 411 1292 247 549 604 197 150 92 240 329 298 113 117 306 2358 776 643 1018 117 211 108 251 141 502 3585
leaf_count=332 292 168 164 671 87 689 153 343 133 477 125 164 343 85 411 1292 247 549 604 197 150 92 240 329 298 113 117 306 2358 776 643 1018 117 211 108 251 141 502 3585
internal_value=-0.00149987 -0.00516052 -0.00923947 -0.0111066 0.00590434 0.00326307 -0.0151229 -0.0211825 0.0039855 -0.0233886 0.00320777 0.0300442 0.00211761 0.000972314 -0.0134942 -0.00899296 0.0117867 0.014288 0.00893355 -0.00205506 -0.00101818 0.0177441 -0.00257743 0.00975347 0.0129252 0.023571 -0.00358586 0.01346 -0.00642607 -0.0311773 -0.028264 0.00349407 -0.00532426 -0.00401433 0.00893189 0.00676081 -0.00866243 0.0118395 -0.0029968
internal_weight=18881 11324 8274 7829 3050 2882 6140 3618 7557 564 7424 289 7135 6792 2046 1635 1485 1400 1153 5307 5110 384 4726 2318 1989 445 4576 423 2522 1572 1419 1689 4153 3913 1691 1583 392 1191 3796
internal_count=18881 11324 8274 7829 3050 2882 6140 3618 7557 564 7424 289 7135 6792 2046 1635 1485 1400 1153 5307 5110 384 4726 2318 1989 445 4576 423 2522 1572 1419 1689 4153 3913 1691 1583 392 1191 3796
cat_boundaries=0 1 3 5
cat_threshold=1056 2286026824 128 0 83
is_linear=0
shrinkage=0.200143


Tree=18
num_leaves=40
num_cat=13
split_feature=7 7 7 7 7 9 7 8 7 7 7 7 7 22 7 8 5 6 5 8 6 2 14 8 8 21 8 8 8 22 21 8 22 12 19 8 4 21 8
split_gain=21.4628 17.6612 11.36 9.85926 8.56661 8.36076 8.00975 6.46509 11.0693 8.84541 8.65285 6.06624 5.38912 4.42275 4.48675 4.19015 3.58848 4.97571 3.47364 3.50256 3.25717 3.25833 3.21242 3.04528 2.76421 2.68146 2.61444 2.32302 2.17226 2.15882 2.59619 1.93666 1.92067 1.61911 1.51545 1.49715 1.47124 1.42759 1.42191
threshold=0 1 2 3 4 5 6 21.500000000000004 7 8 9 10 11 15.500000000000002 12 33.500000000000007 50.623349350000005 4.6764980000000014 50.878285050000009 9.5000000000000018 4.8612577850000012 4.5000000000000009 5.2973871794871803 22.500000000000004 14.500000000000002 28657.000000000004 21.500000000000004 17.500000000000004 28.500000000000004 5.5000000000000009 27324.500000000004 22.500000000000004 12.500000000000002 3975.5000000000005 81345.500000000015 25.500000000000004 3955.0000000000005 28001.000000000004 3.5000000000000004
decision_type=9 9 9 9 9 9 9 2 9 9 9 9 9 10 9 2 2 2 2 2 2 2 2 2 2 2 2 2 2 10 2 2 8 2 2 2 2 2 2
left_child=31 23 35 26 18 29 -7 8 27 24 28 15 37 14 -14 34 17 -13 19 -5 21 -18 -22 -2 32 -15 -4 -8 -9 -6 -31 -1 -10 -29 -12 -3 -25 -11 -20
right_child=1 2 3 4 5 6 7 10 9 12 11 16 13 25 -16 -17 20 -19 38 -21 22 -23 -24 36 -26 -27 -28 33 -30 30 -32 -33 -34 -35 -36 -37 -38 -39 -40
leaf_value=4566.7193422768205 -5689.3210613749616 -3849.1686293368271 1523.912134965027 -3130.4644416164897 -13133.724504295435 -2382.9392758987742 -3408.5844672525791 2481.7777189171943 -1687.793567615897 -1545.2138665746525 -3719.4630460951603 -6497.4646116975819 956.06572673730432 -3934.2194760332586 -225.83795018629561 2213.973883858921 1476.1973382925387 844.29339808452596 865.60498740820344 5133.4107742000215 -2359.5509162515077 8575.4987856268399 1251.5157995939571 -6580.8673211852565 2981.9785892703567 298.98848678672562 7992.9362695501977 671.68998521754202 9782.141594625502 -4957.3340527697983 -1342.2489197142054 14378.243244076353 937.68178816722968 -4594.5073139478409 -1566.087319391406 -1990.7578354630239 -25.417999275173127 -2315.0117619314051 4893.5838790839816
leaf_weight=372 262 348 430 143 107 619 365 254 82 400 313 154 646 441 7260 151 1850 248 127 122 489 350 629 81 228 173 145 86 185 118 205 82 142 88 246 117 82 298 443
leaf_count=372 262 348 430 143 107 619 365 254 82 400 313 154 646 441 7260 151 1850 248 127 122 489 350 629 81 228 173 145 86 185 118 205 82 142 88 246 117 82 298 443
internal_value=-0.00113948 -0.002209 -0.00124445 -0.000416304 -0.00129712 -0.0023254 -0.00156085 -0.000636689 -0.00349914 -0.00192271 0.00536341 0.00265909 -0.00327471 -0.0018769 -0.000607508 -0.0141614 0.0059011 -0.0119257 0.0183394 -0.00037652 0.00808102 0.01255 -0.000715575 -0.0420237 0.0250838 -0.0182309 0.0251127 -0.0311256 0.031816 -0.0295142 -0.0219441 0.0413394 0.00979433 -0.0125962 -0.0223461 -0.03176 -0.0213854 -0.0200487 0.0273505
internal_weight=18881 18427 18002 17537 16962 16127 15697 15078 10209 9670 4869 4430 9218 8520 7906 710 3720 402 835 265 3318 2200 1118 425 452 614 575 539 439 430 323 454 224 174 559 465 163 698 570
internal_count=18881 18427 18002 17537 16962 16127 15697 15078 10209 9670 4869 4430 9218 8520 7906 710 3720 402 835 265 3318 2200 1118 425 452 614 575 539 439 430 323 454 224 174 559 465 163 698 570
cat_boundaries=0 66 132 196 262 329 331 396 459 522 587 653 719 783
